#ifndef FLOATINGPOINT2020_FILE
#define FLOATINGPOINT2020_FILE


float B1[] = {

-3.9804051 ,
-6.1073585 ,
-5.7364125 ,
-1.1060925 ,
-4.9466715 ,
-1.8547637 ,
-5.1530371 ,
-4.2483039 ,
-4.1834164 ,
-7.0419154 ,
-6.8332777 ,
-3.3206117 ,
-2.518106  ,
-1.3431669 ,
-5.0986872 ,
-2.7021966 ,
-5.5163789 ,
-4.6211767 ,
-4.1693587 ,
-5.9524808 ,
-3.9589765 ,
-4.6716013 ,
-3.8717971 ,
-6.608532  ,
-3.8639591 ,
-3.7067215 ,
-4.7328887 ,
-5.8740311 ,
-2.3896823 ,
3.1057565  ,
-2.1932521 ,
-3.1015556 ,
-2.1276367 ,
-3.3851066 ,
-2.9691942 ,
-4.7570577 ,
-1.8908805 ,
-1.3922805 ,
-3.7201264 ,
-4.1104164 ,
-5.9206786 ,
-3.3502567 ,
-6.6140709 ,
-3.8230684 ,
-1.3167132 ,
-4.4318333 ,
-2.281889  ,
-2.2846045 ,
-2.7516525 ,
-1.1915762 ,
-4.4814711 ,
-1.676495  ,
-7.4248066 ,
-4.5417452 ,
-6.2240758 ,
-3.8021052 ,
-5.108952  ,
-7.2808099 ,
-3.6010475 ,
-2.9845829 ,
-1.5734904 ,
-4.3085718 ,
-3.0193696 ,
-7.277679  ,
-6.3403106 ,
-3.0253286 ,
-5.8234591 ,
-4.6167336 ,
-0.70416582,
-1.977538  ,
-4.1986008 ,
-1.3772981 ,
-7.2822218 ,
-2.899339  ,
-3.8954206 ,
-4.6679983 ,
-2.8569174 ,
-3.2836661 ,
-3.0569844 ,
-3.608685  ,
-4.5306816 ,
-6.4602718 ,
-2.7067099 ,
-0.62169611,
-5.1856189 ,
-4.1807504 ,
-5.9525132 ,
-3.2305939 ,
-6.977468  ,
-3.2677138 ,
-3.5758817 ,
-1.3454087 ,
-6.1969633 ,
-3.3841379 ,
-1.5347865 ,
-4.8225136 ,
-3.5217252 ,
-3.6438417 ,
-3.4708147 ,
-4.8143759 ,
-3.9685738 ,
-3.670691  ,
-5.3825011 ,
-3.1183016 ,
-3.9705791 ,
-2.2435043 ,
-2.7612896 ,
-4.7392812 ,
-2.7428854 ,
-7.0246487 ,
-3.2758596 ,
-3.3608353 ,
-4.6198854 ,
-1.8944215 ,
-2.0173371 ,
-7.6246753 ,
-6.977982  ,
-1.3453109 ,
-1.0487591 ,
-2.4577246 ,
-3.081197  ,
-3.2754462 ,
-4.3181529 ,
1.0246753  ,
-2.0971596 ,
-4.6986489 ,
-5.0200629 ,
-5.6818867 ,
-5.8369761 ,
-3.0979173 ,
-2.7350349 ,
-4.8770523 ,
-4.470346  ,
-0.93943071,
-1.5361942 ,
0.040658373,
-4.5064831 ,
-3.0248899 ,
-4.6994729 ,
-6.8924928 ,
-4.0261955 ,
-2.7013369 ,
-5.0224819 ,
-1.3041985 ,
-4.0949278 ,
-6.0181141 ,
-5.1194882 ,
-9.9971132 ,
-3.5622306 ,
-2.6008875 ,
-4.4971991 ,
-4.6153893 ,
-1.8465478 ,
-3.5070925 ,
-5.7493129 ,
-8.4791508 ,
-2.1045327 ,
2.537699   ,
-3.7740667 ,
-6.0849047 ,
-2.5870466 ,
-5.3982048 ,
-2.6762865 ,
-3.799989  ,
-4.7456241 ,
-4.1053596 ,
-1.3109204 ,
-4.4128957 ,
-1.8547119 ,
-4.3409433 ,
-6.2492356 ,
-2.1774075 ,
-1.6417499 ,
-4.2858438 ,
-3.2008674 ,
-2.8303726 ,
-4.2449312 ,
-7.0703335 ,
-5.0599551 ,
-0.93419147,
-4.8795018 ,
-4.3131242 ,
-6.9946747 ,
-3.8400979 ,
-2.8030515 ,
-6.6144485 ,
-3.7438574 ,
-7.4539995 ,
-2.8978486 ,
-6.0474401 ,
-7.5047741 ,
-4.3607082 ,
-11.6394   ,
2.9323752  ,
-5.3514175 ,
-3.6003368 ,
-4.9599204 ,
1.2214363  ,
-2.6391294 ,
-6.2848582 };

float B2[] = {
-1.9275739   ,
-3.4113288   ,
-1.9401193   ,
-1.789071    ,
0.89826739   ,
-2.7845714   ,
-1.7557232   ,
-1.9348056   ,
-0.34583139  ,
-1.533604    ,
-1.9444878   ,
-1.4714832   ,
1.7466335    ,
-0.19954973  ,
-3.4972725   ,
-2.4594207   ,
-1.733204    ,
-3.8291297   ,
-0.65097362  ,
-1.9279041   ,
-1.1070268   ,
-1.8245392   ,
-1.8903768   ,
-1.8813998   ,
-2.4001963   ,
-1.532822    ,
0.26024574   ,
-2.4611259   ,
-2.0022624   ,
-2.0121799   ,
-1.8974379   ,
-2.7676694   ,
-1.9292921   ,
0.24439476   ,
0.68838263   ,
-1.7599329   ,
-0.63713336  ,
-3.8721492   ,
-1.8421189   ,
-1.3110046   ,
-1.3804808   ,
-1.0709637   ,
-1.8711227   ,
-0.94132888  ,
-1.940338    ,
-1.938737    ,
-1.9992867   ,
-2.836333    ,
-4.188508    ,
-1.8687239   ,
-2.135066    ,
-1.9371098   ,
-0.44048285  ,
-4.0016246   ,
-1.842003    ,
-1.8749627   ,
-1.9397625   ,
-3.7127349   ,
-3.4158549   ,
-2.7639272   ,
-1.6330347   ,
-3.8824053   ,
-1.845979    ,
-1.743768    ,
-2.2976911   ,
-1.9416926   ,
-2.0076454   ,
-1.623471    ,
-2.832741    ,
1.0740637    ,
-1.9314842   ,
-0.1788138   ,
0.90602136   ,
-1.5330199   ,
0.044443138  ,
-2.5426078   ,
-0.02740599  ,
-2.7866199   ,
-2.8451238   ,
-1.8811355   ,
-0.38476422  ,
-1.8587378   ,
-1.7877342   ,
-1.6714035   ,
-1.9452541   ,
-1.8091313   ,
-1.8370498   ,
-1.8629434   ,
-2.0304215   ,
-1.9342614   ,
1.6810714    ,
-1.9131649   ,
-1.7193197   ,
-1.7938333   ,
-1.7949224   ,
-1.9344141   ,
-2.840754    ,
-2.8261483   ,
0.044733576  ,
-1.9395936   ,
-1.93941     ,
-1.0954508   ,
-2.7544968   ,
-2.3550508   ,
-1.2267797   ,
-2.8439348   ,
-0.80417645  ,
-4.0245523   ,
-1.3596565   ,
-2.9537206   ,
-1.652868    ,
-2.5270779   ,
-1.3443631   ,
2.3248122    ,
1.9120069    ,
-2.827071    ,
-1.5833575   ,
-1.8248307   ,
-1.1703513   ,
-2.9081025   ,
-1.9717909   ,
0.25925964   ,
-1.8561882   ,
-1.4162519   ,
-1.9193681   ,
0.17519376   ,
-0.4779098   ,
-0.72087437  ,
-1.8659548   ,
-2.3391204   ,
-1.9402076   ,
-1.9413931   ,
-1.5366468   ,
-1.9122374   ,
-4.0200977   ,
-0.066820174 ,
-2.7765942   ,
-2.6763766   ,
0.18387192   ,
-0.65001136  ,
-0.14726514  ,
-1.7714287   ,
-2.8560143   ,
-1.9404229   ,
-1.5319641   ,
-1.6912642   ,
-2.3909817   ,
-3.7478154   ,
-1.8841227   ,
0.63879937   ,
-1.1925614   ,
-1.1048748   ,
0.57281721   ,
-4.0227475   ,
-2.8033876   ,
-1.8111591   ,
-1.4092619   ,
-0.66221696  ,
-1.9418212   ,
-1.8126727   ,
-1.5322913   ,
-0.83258426  ,
-1.753563    ,
-1.21591     ,
-1.1722507   ,
-1.0746382   ,
0.18268499   ,
-1.7450312   ,
-2.5526149   ,
-1.5345742   ,
-2.8532679   ,
-1.9400154   ,
-2.2931058   ,
-1.159659    ,
-1.9356281   ,
-2.8340223   ,
-4.0260096   ,
-1.9978653   ,
-1.5323669   ,
-1.8932725   ,
-2.0715647   ,
-2.8512571   ,
-2.9215317   ,
-2.2318292   ,
-1.1761431   ,
-2.2429526   ,
-1.5323948   ,
-1.2513329   ,
-1.889788    ,
1.5216327    ,
-1.6981378   ,
-2.9836342   ,
-1.82146     ,
-1.8738388   ,
1.2211348    ,
0.17842457   ,
-1.9619316   ,
-1.5320866   ,
-1.9592471   ,
-1.4043263   };


float W3[10][200]={
	
{-0.043506291,-0.040676594,-0.015403596,-0.039633773,-0.058650482,-0.011408594,0.010469451,-0.016841356,-0.027172072,0.19598997,0.21265991,-0.047517758,-0.051204626,-0.047088057,-0.029200755,-0.025742872,-0.046028595,-0.029187173,-0.019568771,0.20540017,-0.009277406,-0.032414638,-0.021307545,-0.052949235,0.092248119,0.19576025,-0.012438767,-0.011312227,-0.049406063,-0.04911796,-0.019681986,-0.011240009,-0.016195744,-0.057848975,0.1355505,0.007857349,-0.023840882,-0.029990491,-0.01791344,-0.035891417,-0.042536378,-0.051331028,-0.024511114,-0.072304972,0.20606484,0.20658299,-0.049570687,0.082486905,-0.01648598,0.048526373,0.12098221,-0.014910642,-0.035209823,-0.017417423,-0.051371571,-0.022927722,0.20727588,0.010463292,-0.040291011,0.091585599,-0.067188263,-0.030135654,-0.026399732,0.20554502,-0.03476112,0.20963891,-0.037863914,-0.042969622,-0.012553311,-0.037987024,0.20913312,-0.049523242,-0.011187681,0.19566534,-0.061083738,-0.016321493,-0.028259337,-0.025185373,0.081524134,-0.066067591,-0.014466416,-0.042264275,-0.036252931,-0.002982428,0.20078053,0.10742725,-0.011062688,-0.06773328,-0.050159328,-0.047831617,-0.0157091,-0.019190505,-0.03079265,-0.015868342,-0.034183297,-0.017042352,0.082519069,-0.012980306,-0.052139688,0.20731817,0.20691861,0.048417561,-0.060255881,-0.037893914,-0.025342695,0.081150912,-0.058842827,-0.017362,-0.054141641,-0.010414849,-0.046047889,-0.028005553,-0.028062463,-0.042260621,-0.008875495,0.083337501,-0.048522305,-0.031354059,0.015721228,0.090911426,0.094283246,-0.022728635,-0.018615423,-0.051031247,0.031989533,-0.023017181,-0.03476388,-0.059932847,-0.025006486,-0.017635401,0.21103586,0.20929146,0.19508944,-0.018303651,-0.017369548,0.10706087,-0.059869248,-0.031615909,0.12654221,-0.060711395,-0.022534886,-0.042105511,0.080590338,0.20794019,0.19557153,0.075465985,-0.076664299,-0.027705187,-0.022859089,0.080972448,-0.033831242,0.12498768,0.13467711,-0.016698867,0.083680972,-0.045301039,-0.044747919,-0.035326958,0.20874804,-0.032786567,0.19531582,0.008649857,-0.002709887,0.091105714,-0.045494996,-0.05386639,0.1026677,0.005740609,-0.016184358,0.19526018,-0.030921025,0.20782222,-0.050204121,0.024384983,-0.015116188,-0.043289099,-0.017083047,-0.010475787,0.19550577,-0.019083405,-0.047878001,0.080652289,-0.011242446,-0.024892613,-0.008743907,-0.053056538,0.19572037,-0.008616014,-0.022040782,-0.014755129,0.05101721,-0.007058327,-0.03442239,-0.019828439,0.12363096,0.100826,0.080574892,0.19562101,-0.062385473,-0.05019081                                },
{-0.082214698,-0.086117133,-0.026963891,-0.002601504,-0.13624467,-0.014741598,-0.098241605,-0.033584587,0.36589041,-0.029505355,-0.034931798,-0.031041395,-0.15502341,-0.055691786,-0.088047631,-0.06894049,0.050641492,-0.016246554,0.33300436,-0.034163285,-0.10706222,0.008391113,-0.031255838,-0.083641604,-0.10185064,-0.03071966,-0.016970044,-0.064842619,-0.073725961,-0.073031098,-0.019242128,-0.014592635,-0.028527424,0.18558405,0.14152436,-0.097591631,0.31083935,-0.013968673,-0.06681478,-0.056431722,-0.028542383,0.177902,-0.001571323,0.218573,-0.033877887,-0.03395462,-0.063607834,-0.002941356,-0.050118104,-0.15107141,-0.012242149,-0.030468285,0.24853122,-0.052827351,0.12313548,-0.031732071,-0.034030855,0.18828483,-0.084039882,0.007536603,-0.13841227,-0.013775423,-0.037924912,-0.034868278,-0.05941046,-0.034248494,0.2277724,0.081761785,-0.016642872,-0.059610572,-0.03618224,0.2275641,-0.015219941,-0.030579658,0.19852391,-0.067456618,-0.070544206,-0.11966662,-0.003684908,0.13508448,-0.025869627,-0.08810956,-0.02696522,-0.096033476,-0.033221569,0.11947158,0.15019487,0.081527703,0.13198602,-0.088435516,-0.035567321,-0.017366987,-0.061819762,-0.067595154,-0.043616232,-0.018140858,-0.00313279,-0.046509784,0.2017318,-0.034012012,-0.033954233,0.18392514,-0.11137998,-0.030364554,-0.051305365,-0.003202968,0.17885488,-0.052440047,-0.090289995,-0.043086924,0.07741867,-0.065290652,-0.033143852,-0.035308182,-0.0193602,-0.001901222,0.091120571,-0.042194556,-0.085887633,-0.096127644,-0.15125237,-0.10429622,-0.066546194,-0.090419784,-0.04987495,-0.099095106,0.2538645,0.2728622,-0.014703117,-0.061740831,-0.035753146,-0.034252662,-0.031546444,-0.029408133,-0.052484475,0.16649672,-0.11216508,-0.060639661,0.16233866,0.27018532,-0.05061698,-0.003577089,-0.004112181,-0.034077909,-0.030550269,-0.033844993,-0.11923549,0.1326856,-0.023241727,-0.027122842,0.23547427,-0.042300288,-0.054723546,-0.052696716,-0.000792817,-0.14514621,-0.034996577,0.24415851,-0.034175042,0.046416916,-0.031239087,-0.081536144,-0.09674038,0.011850609,-0.10339396,-0.072500929,0.12429178,-0.09735091,-0.06757956,-0.031344347,0.19354078,-0.034078483,-0.14857036,-0.092884958,-0.03313585,-0.082404837,-0.052431874,0.35512587,-0.030988816,-0.06633018,-0.1631503,-0.003936775,-0.044829026,-0.04839205,-0.10641987,-0.14894059,-0.030608153,-0.10506673,-0.016874777,-0.037186,0.20545173,-0.11892805,0.012267667,-0.095331594,-0.07358975,0.1289573,-0.14846019,-0.030529616,-0.13411994,-0.090430804                                               },
{-0.010233772,-0.061732169,-0.031264793,-0.051676553,0.21726292,-0.056543238,-0.056500439,-0.003081081,-0.11163918,-0.032214157,-0.023393311,-0.046608783,0.22873011,-0.070096202,-0.015062716,-0.001188335,-0.054844033,-0.008226589,-0.090247408,-0.023425978,0.25737914,-0.05330253,-0.043155018,-0.085264519,-0.027937006,-0.031858139,-0.071454138,-0.005065533,-0.10983709,-0.10915657,-0.043009985,-0.056817077,-0.038088232,0.17355916,-0.11869144,-0.056773476,-0.092621006,-0.00839773,-0.005047113,-0.060191523,-0.052155029,-0.085199423,-0.048591129,-0.11185947,-0.023418892,-0.023454176,-0.073620304,-0.010924977,-0.012487342,-0.12595215,-0.025904531,-0.031205291,0.19688965,-0.012587584,-0.10688268,-0.045866199,-0.023437249,-0.084793001,-0.060544502,-0.016904911,0.21249853,-0.00845288,-0.046139445,-0.027562372,-0.077786744,-0.02347582,-0.18460885,-0.040564515,-0.046432335,-0.11310063,-0.023420416,0.19703406,-0.08036828,-0.031907529,0.030846147,-0.004096636,-0.020828433,0.20393033,-0.010441338,-0.11172649,-0.037838612,-0.096279815,-0.052141216,-0.058218852,-0.02321844,0.19567247,0.013730912,-0.072156042,-0.11929227,-0.092309996,-0.073005348,-0.032324854,-0.094110064,-0.005369434,-0.046443682,-0.036968924,-0.010903914,-0.018064283,0.18676668,-0.0234625,-0.02345998,0.16214699,0.13665548,-0.055438552,-0.066143274,-0.010408616,0.12943634,-0.012574567,-0.081338011,-0.016274685,-0.071072809,-0.023836115,-0.056671109,-0.10051693,-0.083579443,-0.011410301,-0.087842241,-0.046326816,0.33031031,-0.022633789,-0.12217713,0.23749501,-0.00488486,-0.081773989,-0.016573509,0.23253092,0.19583562,-0.14193508,-0.047426753,-0.022848124,-0.023232237,-0.023434235,-0.031612005,-0.037533086,-0.012564439,0.19538176,0.14291444,-0.030674485,0.24141832,-0.14556365,-0.041687768,-0.052915614,-0.010075633,-0.023445284,-0.031945456,-0.016142169,0.2040595,-0.080325559,-0.045233879,-0.083289832,0.2076502,-0.06073375,-0.070774153,-0.01248082,-0.011507916,-0.09527377,-0.054445781,0.19243716,-0.023435991,-0.04745673,-0.031742826,0.3374235,-0.058364984,-0.015928147,0.18266894,-0.067426242,-0.096685752,-0.056913808,-0.004125573,-0.03169319,0.15651646,-0.023453323,0.24535023,0.33269471,-0.030726776,-0.002361141,-0.012597942,-0.077047057,-0.031795982,-0.004724107,0.22869317,-0.01006272,-0.016653441,-0.040282082,0.25780091,0.23943095,-0.031888936,0.25866559,-0.039847154,-0.075206801,-0.076107569,-0.019171225,-0.05046878,-0.069423445,-0.073171966,-0.094752021,-0.12088474,-0.031938843,0.22338675,-0.081773967                 },
{0.25843638,-0.018049834,-0.041596666,0.022281,-0.093665257,-0.095388882,0.12122423,-0.045830186,-0.037956029,-0.009712067,-0.022852385,0.19456507,-0.067729406,0.18153106,-0.057435073,-0.049790025,0.069562614,0.39656433,-0.030661777,-0.018306935,-0.027421428,-0.015746551,-0.040445331,0.15854776,0.30212784,-0.006765293,-0.015324553,-0.06125357,-0.062920533,-0.067843206,-0.049424145,-0.094833814,-0.0408764,-0.096130341,-0.069460385,0.12124691,-0.020935385,0.39856902,-0.057933807,-0.15716016,0.1611167,0.23440634,-0.039857753,0.17951059,-0.018518729,-0.018691685,0.17081219,-0.003851359,-0.017145183,-0.093968652,0.007912471,-0.04347552,-0.034935653,-0.019990301,0.071301058,-0.038131345,-0.018951451,-0.055888306,-0.023544926,-0.001515057,-0.11896275,0.39840868,-0.010973478,-0.023271769,0.16607074,-0.020034628,-0.087219805,0.12862806,-0.10046452,0.069492944,-0.025986446,-0.062616631,-0.011128415,-0.006784756,-0.10611171,-0.053029265,-0.065201841,-0.15640761,-0.004058939,0.016637424,-0.031186165,0.16335629,0.029372292,0.12571055,-0.017086221,-0.14783825,-0.098126583,0.19304216,-0.21234763,0.1631269,-0.028465848,-0.049496051,-0.0644558,-0.058233917,0.025432803,-0.038687591,-0.003723492,-0.025332119,-0.078885198,-0.019004865,-0.018857587,-0.046915393,-0.14386196,0.2016297,-0.16112439,-0.004320778,-0.13020438,-0.019419579,0.14455341,-0.018877555,0.11707293,-0.065867692,-0.080021754,-0.11550133,-0.011752892,-0.003803607,0.12461252,-0.00403375,-0.014407614,0.31375536,-0.11277071,-0.090441294,-0.057336867,0.14248329,-0.082381874,-0.083041646,-0.033049051,-0.058827266,-0.038705852,-0.073513158,-0.025176434,-0.019807909,-0.004395735,-0.045757037,-0.019501932,-0.12192287,-0.14580005,-0.060943559,-0.074729778,-0.041666575,-0.063713729,0.046075664,-0.004157139,-0.019250689,-0.006943818,-0.093349524,-0.11641879,-0.021987196,-0.037612442,-0.033985682,-0.044534437,0.16008191,0.085552327,-0.019545715,-0.004196092,0.099390969,0.17162035,-0.056901798,-0.019560752,-0.021498606,-0.005604289,-0.018354734,0.12273421,-0.10552758,-0.039142687,0.12604742,0.1825572,0.1223086,-0.052952968,-0.005083687,-0.051519219,-0.019215159,-0.067439876,-0.019391844,-0.041068867,0.33094373,-0.019279236,-0.033925898,-0.006136986,-0.056744479,-0.10816555,-0.004404148,-0.022056704,-0.061000515,-0.024880456,-0.070753977,-0.006827264,-0.021676566,-0.048479062,-0.028116804,-0.081655174,-0.055826787,-0.013073584,0.076829195,0.10306367,0.17701407,-0.10965617,-0.006962932,-0.094526544,0.13889711                              },
{-0.048521399,-0.007522948,0.11659392,0.063144214,0.074216515,-0.023223815,-0.056688339,0.11569934,-0.023957256,-0.004021979,-0.004820956,-0.041253552,0.08973112,0.2362621,-0.06121571,-0.074459583,0.051762711,-0.019948047,-0.05215374,-0.003523162,0.22299142,0.070585638,0.090444922,-0.073235042,-0.063862309,-0.003934452,-0.12178189,-0.06332121,0.16539401,0.16624294,0.092729352,-0.024722293,0.10588491,-0.042931072,-0.15097868,-0.056788113,-0.071196601,-0.020046595,-0.084755629,-0.039118722,-0.04886293,-0.074285164,0.081902638,-0.070966393,-0.003615078,-0.003705386,-0.062881917,-0.006794745,-0.031259742,0.1125019,-0.007547476,0.1123012,-0.07621783,-0.033672474,-0.19563687,0.08744593,-0.003824344,-0.11109141,-0.004648291,-0.008094396,0.07718917,-0.020180201,0.085389391,-0.009824475,-0.14669688,-0.004216801,0.14671394,0.032277234,-0.012969862,0.1098652,-0.004467395,-0.090762191,0.29999378,-0.003938411,-0.019959135,-0.066242397,0.11458705,-0.19380505,-0.006693435,-0.19059989,0.26940018,-0.068934135,0.068504058,-0.055003908,-0.002848997,-0.20180072,0.041841488,0.006723677,-0.14803509,-0.070245162,0.28512949,0.093192928,0.16783266,-0.081197381,0.074507773,0.10378914,-0.006805772,-0.037946858,-0.064300597,-0.003854201,-0.00376679,-0.19230807,-0.17073251,-0.042224195,-0.040734768,-0.006623196,0.073127508,-0.033086166,-0.06531582,-0.039845325,0.042896464,-0.018591369,-0.028966695,0.12579907,0.28951281,-0.00688597,0.033219356,0.074860305,-0.062278889,-0.071848206,0.076069772,0.16587356,-0.084450744,-0.066252872,-0.023924638,0.17634019,-0.071354054,-0.099958867,0.081414334,-0.019810954,-0.004747986,-0.004160022,-0.003989772,0.097199932,-0.033205174,-0.1763905,-0.17068379,-0.017192805,-0.13440667,-0.096434258,0.24686185,0.061486635,-0.006580711,-0.003949934,-0.003909273,-0.02848349,0.042542495,-0.043771029,0.087724775,-0.1280226,-0.075109132,-0.05465056,-0.12751471,-0.034564376,-0.006789325,0.12704238,-0.049126182,-0.065700755,-0.004083666,0.064428136,-0.003923294,-0.071720533,-0.056300361,-0.024225753,0.1655606,-0.057444479,-0.12917931,-0.056411095,-0.066043004,-0.003959625,-0.089848466,-0.003917,0.093727477,-0.05409399,0.11539852,-0.072946168,-0.033411674,-0.032919381,-0.003928696,-0.085403398,0.079495609,-0.00655743,-0.038379882,-0.037090946,0.22435959,0.071146242,-0.003943377,0.22794726,0.087240845,0.28891295,-0.070208482,-0.1154082,0.068225242,-0.05306115,-0.12649541,-0.13222584,0.079312928,-0.003917244,0.050699979,-0.065473199                                                   },
{0.21980339,0.10378118,-0.038863212,0.078521788,-0.094555624,-0.020918131,-0.057501253,-0.042001929,-0.057588607,-0.022909289,-0.019847328,-0.051787004,-0.1063886,-0.093222275,0.17597114,0.33340785,0.064623922,-0.048078679,0.079976238,-0.021487128,-0.069106996,0.0837681,0.044288851,-0.056472059,0.19752248,-0.021629242,-0.026158519,0.30407864,0.11488101,0.10228113,0.039837066,-0.019744137,-0.005330036,-0.080729447,-0.060800202,-0.057166252,0.14183968,-0.049293846,0.32789439,-0.017843492,-0.048443194,0.17039855,0.049816281,0.1126147,-0.021385537,-0.021326805,-0.059513226,-0.010762385,-0.056078102,0.11657541,-0.015729871,-0.013229962,-0.059816089,-0.050053805,-0.18389529,0.060191132,-0.02128616,0.14248841,0.10704948,-0.01493686,-0.084751181,-0.049231801,0.040841911,-0.020788789,-0.080112778,-0.020999171,0.07335633,0.027010517,-0.026129948,-0.05663611,-0.017572429,-0.055193491,-0.03000656,-0.021672605,-0.085901409,0.31508297,-0.037107039,-0.066060938,-0.010422553,-0.16972718,-0.059753314,-0.05283368,0.081113197,-0.056514479,-0.021580396,0.087769836,0.047996148,0.095410056,-0.14521055,-0.053778265,-0.048543595,0.027485669,-0.01042996,0.32226816,0.038742732,-0.011249022,-0.01075443,-0.057680048,-0.067300603,-0.021258961,-0.021318771,-0.12710913,-0.076292679,-0.043928258,-0.019715622,-0.010374936,-0.12271578,-0.051635861,-0.050727788,-0.051266734,0.039626133,-0.006046648,-0.076320142,-0.076590411,-0.032659978,-0.011145695,0.025198748,0.076165423,-0.011211407,0.20065409,0.12788007,-0.058937803,0.32818916,-0.049808271,-0.01308229,-0.056471493,-0.061473466,0.13569379,0.070057668,-0.007938606,-0.018313799,-0.021061253,-0.021016816,0.027570516,-0.051434554,-0.085362934,-0.075203568,-0.005188442,-0.055496607,0.13453284,-0.073208228,0.081499621,-0.010151379,-0.021217834,-0.021726847,-0.02280187,-0.091763295,-0.081814796,0.042655915,-0.047825634,-0.072301783,0.081029676,-0.078390509,-0.050370418,-0.011329074,0.13809496,-0.053271305,-0.072326794,-0.02111158,0.083270974,-0.021343241,-0.012800197,-0.056494478,-0.039567269,-0.09101025,-0.053325318,-0.099777102,-0.057048161,0.31486562,-0.021188831,-0.13813588,-0.021222293,-0.083301589,-0.014544078,-0.028732397,0.23016174,-0.051655896,-0.013315002,-0.021481136,0.32904521,0.12365372,-0.010150711,-0.055810545,-0.065682784,-0.067651592,-0.081630498,-0.021629529,-0.066643864,0.054747719,-0.049063746,0.20177259,0.24340327,0.086827748,-0.044909596,-0.076060764,-0.10071706,0.12689723,-0.021745849,-0.097157702,-0.048880707                         },
{-0.073515594,-0.053177491,-0.017989149,-0.057438251,-0.12619029,-0.092573598,0.18034443,-0.019604176,0.043379899,-0.019777261,-0.03367348,-0.034475628,-0.11441476,0.14341199,-0.056766614,-0.006274723,-0.084188201,-0.079873599,-0.070656464,-0.029322131,-0.03396019,-0.042451832,-0.02398072,0.18799055,-0.095428705,-0.022945492,-0.015552896,-0.005841614,0.035594776,0.03691186,-0.022802006,-0.08971563,-0.018833907,0.22588384,-0.050409712,0.17982547,-0.076175675,-0.078901276,-0.003955001,0.23536131,-0.035172895,-0.099045053,-0.030072592,-0.11611423,-0.030227009,-0.030471267,0.088013053,-0.012304205,-0.017850371,-0.034123991,-0.005877835,-0.017055159,-0.005610803,-0.015578057,0.063967288,-0.026570864,-0.030671354,-0.11812939,-0.06130277,-0.007347111,-0.13452797,-0.07836429,-0.03450853,-0.019452209,-0.12325449,-0.031687029,-0.058374681,-0.1197056,-0.10498706,-0.040232368,-0.033457678,0.11208295,0.027026108,-0.022832045,0.26518676,-0.005396105,0.26693198,-0.15045312,-0.012772002,0.070675656,0.083899774,0.20768419,-0.053820889,0.18308806,-0.028901195,-0.027142607,-0.070466951,-0.091667049,0.11567757,0.20355646,0.070767738,-0.022611909,0.075013012,-0.003849894,-0.053219229,-0.020138729,-0.012297762,0.031416353,0.19528107,-0.030685654,-0.030539816,-0.074814647,-0.15013349,-0.10283467,0.2321443,-0.012934084,0.043893322,-0.015921336,0.20128782,0.001266555,-0.10665499,0.35599372,0.20166413,-0.05918406,0.03287816,-0.011902131,-0.11312786,-0.040670328,-0.025903156,-0.09437,-0.043537557,-0.072545506,-0.004055674,0.20097125,0.33608764,-0.072779372,-0.021799946,-0.089931041,-0.029417556,0.35991284,-0.03403331,-0.031501237,-0.024316024,-0.0203529,-0.015908247,0.12710646,-0.14926369,0.34624618,0.070026509,-0.093840279,0.168303,-0.064330444,-0.013217758,-0.030920463,-0.022598954,0.32121137,-0.15641497,-0.046331558,-0.026386142,-0.021604272,0.084871978,0.014934259,-0.059722483,-0.016518842,-0.0126984,-0.040745359,0.008909932,0.093901448,-0.031284634,-0.050169304,-0.023487592,-0.012611163,0.18127264,0.31473422,-0.031556189,0.16424201,-0.091065392,0.1807244,-0.005472933,-0.02390255,-0.048082225,-0.030861255,-0.10705853,-0.024279015,-0.017042566,-0.07627438,-0.015947727,-0.061315995,-0.023226604,-0.004158293,-0.12398251,-0.01328486,0.014155664,0.14316431,-0.031836096,-0.11490234,-0.022915984,-0.030458078,-0.025067108,0.063472286,-0.053064365,-0.033696793,-0.045316152,0.20498446,-0.063779823,-0.090107091,-0.042300995,-0.022613563,-0.14899625,0.19977327                                            },
{-0.065281704,-0.084437788,0.11266795,0.075613804,0.12157989,-0.053830873,-0.099441186,0.11981232,-0.069720775,-0.045487136,-0.046053957,-0.086543567,0.10069654,-0.12523036,-0.079380885,-0.049505848,0.057156976,-0.036241967,-0.080409043,-0.045832172,-0.16437605,0.080765583,0.10201557,-0.096428372,-0.040231038,-0.045312114,0.35004386,-0.038780481,-0.13695139,-0.13056602,0.10192446,-0.052345715,0.10969754,-0.1019559,0.28092247,-0.098383389,-0.086173803,-0.039244201,-0.049986634,-0.044031337,-0.077048421,-0.089599662,0.093015179,-0.12474434,-0.04604901,-0.046051577,-0.094058894,-0.021579204,-0.03462743,0.06779591,-0.031078976,0.11217038,-0.097009033,-0.037390653,0.10050888,0.095840774,-0.046161614,-0.098139174,-0.081418641,-0.030093186,0.11111536,-0.039639767,0.092433766,-0.041545436,0.24331746,-0.046341334,-0.15302737,0.028069397,-0.062990092,0.1823027,-0.044911664,-0.10633712,-0.10420048,-0.045328692,-0.09552265,-0.043876208,-0.027063617,0.16335176,-0.020726481,0.10810076,-0.10382774,-0.093176797,0.076570131,-0.10055152,-0.045323968,0.14905685,0.071165726,0.013921828,0.11342114,-0.093136311,-0.10334886,0.10680638,-0.112691,-0.048416283,0.085155964,0.10786574,-0.021536518,-0.030684993,-0.10552391,-0.046135947,-0.046104748,0.20817521,0.184384,-0.080479577,-0.024406942,-0.020742273,0.000275049,-0.037044551,-0.094664894,-0.032799963,0.038556363,-0.003175494,-0.047043204,0.12814893,-0.10000908,-0.022403769,0.027580613,0.089690417,-0.057267044,-0.06573052,0.059234381,-0.17248392,-0.050246317,-0.09255679,-0.020322889,-0.17393813,-0.096972123,-0.078763321,0.092786513,-0.003263297,-0.04522121,-0.046350617,-0.045254838,0.10766025,-0.037122693,0.044765774,0.18174267,-0.001630552,-0.11253747,-0.080294274,-0.086267926,0.071380354,-0.020071296,-0.046226796,-0.045296006,-0.030277506,0.13414009,-0.016410043,0.098792523,0.34515163,-0.11425794,-0.10450199,0.28864765,-0.0351981,-0.02258737,-0.082944438,-0.082540244,-0.11731677,-0.046307653,0.075230733,-0.045216996,-0.062436655,-0.095515981,-0.042115476,-0.16049799,-0.089056365,0.20277284,-0.099107519,-0.043994747,-0.045247927,-0.086470827,-0.046198178,0.070695162,-0.067416012,0.11458605,-0.046922017,-0.036218785,-0.074660838,-0.045260649,-0.05064426,-0.064646617,-0.020100517,-0.031506907,-0.041845664,-0.16330478,0.098880686,-0.045311417,-0.16267213,0.099514231,-0.10342604,-0.079375029,-0.067939207,0.079768628,-0.071151063,0.2992399,0.2079,0.061527357,-0.045313317,0.13192926,-0.090707883                                                     },
{-0.10576516,0.085840769,-0.031703699,-0.030846398,0.16829413,0.35977933,0.12551311,-0.047787745,-0.030942289,-0.017490301,-0.01422239,0.18780318,0.15806822,-0.11363254,0.018912848,-0.007407985,-0.049970057,-0.1499881,-0.014191779,-0.015292843,-0.02035767,-0.044786301,-0.037670135,0.15044005,-0.19652626,-0.017856775,-0.048510537,-0.00472055,-0.031625953,-0.024291176,-0.04352241,0.35755014,-0.03815905,-0.1447818,-0.070195839,0.12667118,-0.019122547,-0.14968656,-0.000477101,0.22891259,0.21541817,-0.12001405,-0.036111541,0.061245698,-0.015072736,-0.015069741,0.17618869,-0.006341428,-0.046999399,-0.10055462,-0.017304581,-0.046672903,-0.08623112,-0.049721133,0.068638943,-0.036729813,-0.01510517,-0.057595804,0.090486526,-0.009892089,0.18768875,-0.14945614,-0.019631777,-0.014572668,0.16383152,-0.015065979,-0.068298139,-0.048976846,0.36851227,-0.004463585,-0.011063382,-0.11324143,-0.047585901,-0.017865097,-0.14278817,-0.008517631,-0.091702759,0.19398277,-0.00601145,0.089939207,-0.050327472,0.13566421,-0.032732408,0.12963043,-0.014458894,-0.17556828,-0.077078901,-0.080638468,0.18085082,0.14204527,-0.031476833,-0.049567472,-0.074632213,-0.000848344,0.001808957,-0.038635887,-0.006376472,-0.055025458,-0.14706086,-0.015098957,-0.015082217,-0.091563329,0.23814175,0.22064041,0.20529537,-0.005882273,-0.018849315,-0.049225345,0.14293705,-0.047646247,-0.048427064,-0.11492474,-0.066870466,0.2408506,-0.046253551,-0.006620168,-0.007910235,-0.026364543,-0.065574646,-0.1925465,-0.092353918,0.16430391,-0.000497378,0.14190777,-0.12755106,0.1486219,-0.081573181,-0.049796805,-0.042836141,-0.12014151,-0.012330385,-0.015106088,-0.01822656,-0.04620406,-0.049243037,-0.15810741,0.23557882,-0.11035421,-0.13718277,-0.056015082,-0.034859866,-0.039450154,-0.005744833,-0.015103173,-0.017822785,-0.13049264,0.211476,-0.045291923,-0.033484321,-0.052881088,-0.11435931,-0.047923476,-0.086571574,-0.049462356,-0.006501773,-0.11864092,0.18814084,-0.10827661,-0.015113877,-0.056686651,-0.018009204,-0.065435469,0.13065387,-0.13878477,-0.058436498,0.16248882,-0.14049706,0.12707284,-0.008638434,-0.018107528,-0.071996734,-0.015115748,0.099584348,-0.05878453,-0.037813947,-0.17272359,-0.049714148,-0.013163084,-0.017938349,-0.000528851,0.13694632,-0.005685326,-0.05094501,-0.051741205,-0.030762719,0.11246616,-0.01784532,-0.043223474,-0.047355063,-0.031898309,-0.017360121,-0.042443763,-0.046533018,0.1363889,-0.074442424,-0.14100309,-0.087928489,-0.017826751,0.18633978,0.14261526                                              },
{-0.049200941,0.16209212,-0.025476947,-0.05736449,-0.072047114,0.008849531,-0.069178313,-0.026780425,-0.050294302,-0.014872409,-0.012864456,-0.043140635,-0.082465276,-0.056243934,0.19222532,-0.050098073,-0.058716867,-0.008773595,-0.055091333,-0.014046462,-0.048808515,-0.054808669,-0.038934935,-0.048987605,-0.066062622,-0.014739182,-0.021852454,-0.048940968,0.14859694,0.14856982,-0.036808386,0.006460799,-0.029571811,-0.060649257,-0.037461158,-0.06889794,-0.062612899,-0.00903969,-0.041010614,-0.053605285,-0.043773372,-0.063232563,-0.044018406,-0.075954594,-0.01390002,-0.013857989,-0.031761177,-0.006987661,0.28305173,0.16027108,-0.013209197,-0.027453678,-0.050390866,0.28923869,0.11023493,-0.041519821,-0.013807644,0.18440054,0.15825392,-0.010338412,-0.044649396,-0.00917261,-0.043087084,-0.013659352,-0.051197626,-0.013569741,0.14155017,-0.045530412,0.014657648,-0.049630355,-0.012071212,-0.059007037,-0.027322521,-0.014756834,0.01680975,-0.050146472,-0.040811695,0.15031366,-0.006712927,0.11768366,-0.030030714,-0.065106355,-0.053646844,-0.069124557,-0.014140842,-0.10704842,-0.068194218,-0.078430332,0.13310941,-0.062991776,-0.019780394,-0.036927547,0.20608559,-0.04088936,-0.048185349,-0.03079118,-0.006987906,0.25280777,-0.068568632,-0.013805258,-0.013834556,-0.069954194,0.15347515,-0.029106438,-0.048666533,-0.006661688,-0.094974577,0.28870925,-0.052299768,0.25894561,-0.043367561,-0.030255552,0.21543548,-0.065437444,-0.019900614,-0.007264711,-0.044329237,-0.049772043,-0.023501355,-0.062064379,0.16462412,-0.046239145,-0.041555643,-0.053519037,-0.034365933,-0.049149804,-0.048714455,0.17058934,-0.046162516,-0.033020917,-0.012227182,-0.013617323,-0.01473099,-0.034872074,0.28883395,-0.099027865,0.15274979,-0.028006457,-0.085972138,0.16980748,-0.0422756,-0.058063693,-0.006479369,-0.013748221,-0.014778285,-0.041284937,-0.031721372,0.23095158,-0.040355295,-0.03139212,-0.073602729,-0.070923366,-0.031180087,0.28753614,-0.007278255,0.16352375,-0.049543146,-0.07464733,-0.013674676,-0.060748711,-0.014749301,-0.021178037,-0.068534687,-0.05154131,0.18130332,-0.059158642,-0.055084605,-0.069014788,-0.049873915,-0.014732813,0.16691704,-0.013760732,-0.052782454,-0.025685484,-0.026347965,-0.064184047,0.28834027,-0.038302761,-0.014748666,-0.041428525,-0.060965724,-0.006470053,0.25726807,0.22776365,-0.048560698,-0.052640203,-0.014750201,-0.048256218,-0.041838907,-0.012732287,-0.080470927,0.21706888,-0.057275534,-0.064497478,-0.038394488,-0.055892121,0.16091789,-0.014773155,-0.05517007,-0.053828213   }};

float W1[200][400] = {

{-0.008449204,-0.16604444,-0.10332237,-0.081009895,-0.17720143,-0.32264706,-0.40508455,-0.56734723,-0.7620101,-0.61039668,-0.13296528,0.20049523,0.0972436,0.10582164,0.14852013,0.20924003,0.21508685,0.082736015,0.034882966,0.03491661,-0.12064044,-0.42689818,-0.10530307,-0.044514023,-0.22330624,-0.49626306,-0.651043,-0.56953877,-0.6693275,-0.20717706,0.65107602,0.73063171,0.90394372,0.75837618,0.25264567,0.02788873,0.22464947,0.037979476,-0.039205443,0.005344283,-0.36870611,-0.73944837,-0.70466721,-0.5761205,-0.56375164,-0.53209496,-0.55463153,-0.29676235,-0.051743161,0.57661873,0.90426785,0.31047109,0.24071056,0.35123906,0.009315855,-0.14265785,-0.20463952,-0.35225525,-0.44835278,-0.1772491,-0.51887035,-1.1006619,-1.2940316,-1.0845631,-0.73525715,-0.40789416,-0.34507576,0.014953001,0.31741366,0.89555782,0.87199777,0.93514949,0.6066311,0.44105205,-0.045240916,-0.42310947,-1.0163317,-0.8115133,-0.34210634,-0.038557507,-0.92924458,-1.3604771,-1.6224664,-1.4073586,-0.99834698,-0.63434935,-0.32930768,0.11866444,0.93716115,1.1886802,0.47518358,1.005354,0.80689734,0.4332312,-0.034125436,0.10580707,-0.82026213,-0.27021092,-0.37187079,-0.006689254,-1.0405595,-1.692626,-1.92112,-1.128037,-0.75613505,-1.0204748,-0.89061451,0.41105512,0.7662915,0.39774084,0.1465809,0.045782328,-0.21041024,-0.66825491,-1.055214,0.22495553,0.34704167,0.69213885,-0.13225405,0.27259159,-1.3764521,-1.8032899,-1.4023777,-0.12271591,-1.5686315,-2.8131092,-1.4071028,0.9460187,1.0410731,0.30746233,-0.86763906,0.11329588,0.33133796,-0.45317519,-1.7370394,-0.68393445,0.034763228,-0.31023377,0.23991351,0.43693,-1.6529059,-1.3447742,-0.51785916,0.28382105,-0.67115164,-1.172634,-0.29186904,1.0640332,1.5294226,-0.10746277,-1.0726541,-0.14831556,1.3208042,0.27311403,-1.0690125,-0.231849,-0.048839349,-0.19326985,0.55581492,0.057201367,-1.241438,-0.27160531,0.70048898,0.94721675,0.548352,0.13371921,0.81179869,1.3956473,0.86957902,-0.57979369,-0.95104116,-0.017474541,0.93253499,0.57395959,0.53579372,-0.087627433,-0.65681142,0.31042191,0.77496952,0.052980464,0.19756332,1.4635416,1.1713547,2.0186129,1.7521456,1.0087236,1.1862937,-0.22749756,-0.27897274,-0.025962751,-0.6783433,-1.3332657,0.085453287,1.0755996,1.0831143,-0.20052098,-1.5553552,0.08532647,0.6977846,0.037862107,1.089202,1.6241703,1.53729,1.9376239,1.2403535,1.1161885,0.058744583,-1.0500199,-0.6027562,-0.38794932,-0.90711135,-1.0877095,-0.55147022,0.47596523,0.48071522,-0.28437307,-1.1016493,-0.11616048,0.22528346,0.63057941,0.77230692,1.029631,1.3444257,0.46875235,-0.78693104,-1.6745452,-1.5507705,-1.226751,-0.88399976,0.48639521,-0.36096087,-0.94736069,-0.167326,-0.3100301,-0.30613768,-0.67213202,-1.2320874,-1.2843691,-0.019762224,0.43499866,0.88959652,1.0029099,0.15851653,-0.45057493,-2.1530499,-2.4345388,-2.090214,-1.0177933,-1.1004851,-0.4339053,-0.44007346,-0.16690764,0.14022845,0.29691046,0.32231668,-0.74202424,-1.5982913,-1.3172234,0.27873394,0.24673449,0.93403369,0.57874072,-0.44238943,-1.1770308,-1.8184905,-2.1834052,-1.3528746,-0.27981046,-0.63213301,-0.47818097,-0.6259135,-0.76528525,-0.40891764,0.31048867,0.28435537,-0.55652624,-1.5601594,-0.50314885,0.16102649,0.26872176,0.60454518,0.37238511,-0.67778569,-1.6412665,-2.0112143,-1.5225078,-0.65930945,0.01740768,0.50097197,0.64373386,0.84603429,0.14676696,0.070334569,1.0371059,0.32645494,-0.21482059,-0.282323,0.18830936,0.36524701,0.40393126,0.39442059,-0.30216435,-1.14258,-1.3498379,-0.79116708,-0.8947441,-0.37047192,0.27298492,0.48894566,0.49830067,-0.44545728,-0.18859762,0.28768617,1.1215363,0.60139716,0.099046372,0.22590937,0.14780761,0.56590146,0.58082861,0.44829181,-0.54434538,-0.85847729,-0.46370542,0.53401351,0.57046872,-0.038466435,0.23241729,0.52739662,0.16983743,0.011501133,-0.04285555,0.47375578,1.0402728,0.8999936,0.83264095,0.30343589,0.35993141,0.08808434,0.11142927,0.4087989,-0.52434385,-1.0511619,-0.44425556,0.50917906,0.58488119,0.30623698,-0.001430787,0.14103603,-0.18824854,0.14095308,0.90337229,0.66142952,0.32477695,-0.24436264,-0.25563797,-0.1916678,-0.25886282,-0.005542668,0.02415004,0.097185113,-0.2960583,-0.27833793,-0.2677964,-0.095976956,-0.22459015,-0.20664586,-0.57606667,-0.22279742,-0.30629462,0.32721415,0.31460378,0.009702401,-0.077655293,-1.1233182,-0.94700426,-0.77384096,-0.47108632,-0.55887389,-0.3024101,-0.41949984,-0.046929788,-0.082463473,0.32256225,0.26820964,-0.12194861,-1.1674354,-1.1009099,-0.4970046,-0.095430225,-0.093624093,0.40807596,0.003004937,-0.026728811,-0.37801278,-0.36980033,-0.42609009,-0.37608892,-0.35109594,-0.26199347                                                                                                                                                                                                                                                                       },
{-0.001068435,-0.003417248,-0.053202901,-0.17525914,-0.26736057,-0.27332622,-0.13605106,-0.026310906,-0.04070342,-0.013805381,0.053327721,-0.03371131,-0.09335386,-0.20350693,-0.31905738,-0.27891317,-0.23531593,-0.16540541,-0.078279257,-0.21381223,-0.008076916,0.056957789,-0.051228948,-0.37765542,-0.41562939,-0.50032455,-0.48936397,-0.3650741,-0.4017691,-0.32953981,-0.11194684,-0.28623801,-0.33461285,-0.37181088,-0.58934957,-0.68199342,-0.4229573,0.022807894,0.061636649,0.18552238,-0.012699234,0.03480532,-0.10608397,-0.36257312,-0.40862933,-0.22791688,-0.2166941,-0.30907753,-0.30369446,-0.27320924,-0.83791518,-0.76643157,-0.8322584,-0.73735172,-0.88120276,-0.80436176,-0.71425796,-0.74050361,0.14302866,0.75815195,-0.10810943,-0.050584234,-0.31080753,-0.48190618,-0.39705476,-0.30564117,-0.45684871,-0.15970922,-0.14151984,-0.23876192,-0.29344836,-0.34853747,-1.0345528,-1.0195651,-0.69764495,-0.93823582,-1.2126741,-0.78018385,0.19753924,1.0057063,-0.10492148,0.049650144,-0.19949536,-0.51555717,-0.33824009,-0.11998748,-0.039789062,0.6824612,-0.027862852,-0.65552574,-0.26217845,-0.51576108,-0.58943158,-0.70391524,-0.86566722,-1.1507826,-1.2144085,-0.88799161,0.023999278,0.28255534,-0.12617366,0.033968341,-0.1899358,-0.1945124,-0.21985275,0.048627052,0.55877316,0.50135034,-0.70884764,-0.41334626,-0.37808836,-0.49946564,0.072798394,0.086566105,-0.72240651,-0.51290804,-0.85037869,-0.16506565,0.21776772,0.17220747,-0.29969257,-0.30889434,-0.2471399,-0.46738672,-0.66234797,-0.029638855,0.55847931,0.026856329,-1.1335672,-0.80714375,-0.8643831,-0.37911603,0.36346328,0.2284956,-0.46164563,-0.51585764,-0.094699584,0.7711525,0.27721849,-0.012176593,-0.40769467,-0.46896818,-0.00851765,-0.7923559,-0.18828963,0.023268618,-0.059603099,-0.73802882,-1.8084722,-1.4638923,-0.52114654,0.43685001,0.70528412,0.47863284,0.14356527,0.34389836,0.90443438,0.7100997,-0.13178606,0.53149456,-0.41667002,-0.48074377,-0.029830264,-0.29348183,-0.45811728,-0.71946317,-1.1615381,-1.3095206,-1.3200793,-1.2257637,0.4027442,0.77253753,0.94760096,1.1680502,0.90940142,1.1406536,1.3375821,0.075304456,-0.28822637,0.29021168,-0.50455588,-0.64451742,-0.35929647,-0.18713389,-0.59198743,-0.43305442,-0.78805143,-0.36716872,0.40383849,0.75669384,0.86500645,0.40247241,1.6683835,1.6480571,0.76060766,-0.65486521,-1.2457216,-1.5586882,-1.1041133,-0.29446548,-0.59586734,-0.31088075,-0.43029845,-0.23911981,-0.036129668,-0.21596316,-0.93335271,0.063590862,1.1738684,1.6108086,1.1917109,0.95535821,0.81296998,-0.37598532,-2.0118186,-2.7144489,-2.1455309,-1.6983062,-0.61466169,-0.72623128,-0.41322732,-0.40314201,-0.48031595,-0.48928365,-0.006593197,-0.10025516,0.077850439,0.25412837,0.98722517,1.0185907,1.0376529,0.91271019,-0.073128201,-0.36323601,-1.2459046,-1.9175962,-1.6685772,-1.1745768,-0.9533003,-1.4400204,-0.040439557,-0.42518115,-0.11963434,0.2587063,0.087808847,0.75325507,1.0938469,0.65822917,0.30379212,0.67981648,0.38006738,0.54609823,0.95217746,0.02166733,-0.90775043,-1.248924,-1.461199,-1.138556,-0.99151093,-1.629766,-0.41206849,-0.84972245,-0.061272722,0.55862135,0.54300982,0.63101691,0.83931732,0.33125016,-0.020071479,-0.10817056,0.094056331,0.97228134,-0.26277858,-0.93004012,-1.1202573,-1.129288,-1.199793,-1.095697,-1.1053171,-1.5447521,-0.17166333,-0.78532833,-0.29289427,-0.10727517,0.052425086,0.25131938,0.092811145,-0.10682829,0.057549771,0.14238521,0.87257659,0.17039298,-1.1645298,-0.52531946,-0.52247882,-0.90432501,-1.1981978,-1.0811942,-1.2428024,-1.2725928,0.14586288,-0.3450149,0.18475749,0.57713759,0.43123809,0.31862897,0.60347015,0.28086472,0.050899655,0.57909453,1.0157279,-0.38702634,-0.9867602,-0.49569926,-0.40750268,-0.96068203,-1.0473387,-0.98183888,-0.97515255,-0.91350406,0.045061402,-0.67396224,-0.19307438,-0.044420615,-0.43434379,-0.22831167,0.25462562,0.089158095,0.32804412,0.57421112,0.25385976,-0.29007143,-0.8288902,-0.14884277,-0.16155475,-0.57983637,-0.59510374,-0.60318708,-0.7127102,-0.6729371,0.38178632,-0.11894839,0.23262514,-0.37041187,-0.60009706,-0.40108007,-0.16090786,0.30728173,0.36465728,0.06323982,-0.030402377,-0.014142002,-0.56835496,-0.12067139,-0.31558815,-0.72280866,-0.42736855,-0.36180344,-0.29758459,-0.28658065,0.32679829,0.1594802,0.29328233,-0.38913921,-0.57681,-0.71650976,-0.43817139,-0.34488761,-0.29168707,-0.3919566,-0.1548385,-0.10920074,-0.57944661,-0.0844905,-0.4564887,-0.83259726,-0.43056801,-0.28784332,-0.18909991,-0.064204484,0.14010467,0.099044316,0.069133371,0.033050463,-0.52168536,-0.70455444,-0.59828579,-0.35357428,-0.16612166,0.10357828,0.11752402,-0.20302786,-0.49552155,0.10918126,-0.30733711,-0.77520663,-0.32050174,-0.14277071,-0.051858902,-0.003469831                                                                                                                                                  },
{-0.000666089,-0.002913582,-0.005992603,-0.016835844,-0.027804198,-0.032034937,-0.036118209,-0.018559003,-0.002378229,-0.064632483,-0.077646174,-0.20265242,-0.13117304,0.020579655,0.13341168,0.11306774,-0.18929961,-0.28140935,-0.22302258,-0.17108473,0.022232154,0.055264704,0.024092581,-0.028086469,-0.030656081,-0.044498038,-0.049759861,-0.000815982,0.012684557,-0.077627756,-0.19115645,-0.58573216,-0.26888701,-0.062114574,-0.12849319,0.11956859,-0.012988973,-0.24987084,-0.21121092,-0.15181893,0.027594304,0.010358393,0.001538752,-0.061787572,-0.053673938,-0.074985281,-0.121165,-0.013492983,-0.004657766,-0.077116013,-0.49587736,-0.58571351,-0.15916771,0.074230455,0.15476638,0.43013835,0.49787095,-0.097078085,-0.088017985,-0.075029179,-0.027474938,-0.049817581,0.012388983,0.064600758,-0.018449308,-0.022998134,-0.086256109,-0.11764245,-0.13487463,-0.12084256,-0.28145793,-0.056483645,-0.070786305,0.25497359,0.15628795,0.12090623,0.17736115,-0.019389506,-0.30524957,0.031419758,-0.15413766,-0.21644524,0.012871347,-0.057468541,-0.17456195,-0.24144179,-0.22708684,-0.261567,-0.46895307,-0.22730672,-0.037178319,-0.04394253,-0.42547944,-0.095211059,-0.38370124,-0.45967293,-0.33851501,-0.074077323,-0.066201501,0.33128029,-0.37070116,-0.42834601,-0.34254503,-0.32775483,-0.43353006,-0.44857156,-0.59074497,-0.7257275,-0.78790808,-0.44722709,-0.11031816,-0.43075699,-0.74967068,-0.39425835,-0.30536553,-0.61899173,-0.44198424,0.050216064,0.6226089,0.74081486,-0.55288392,-0.67017299,-0.71135652,-0.67383599,-0.83985382,-1.1189811,-1.342103,-1.3379065,-1.385255,-0.65695888,-0.47296554,-0.69545406,-0.72269607,-0.30022705,-0.71398991,-0.73127222,0.42159304,0.58551759,0.99127799,0.71275395,-0.92017549,-1.1342692,-1.0661353,-1.1969798,-1.6588341,-2.071655,-1.8102585,-1.3490916,-0.65709823,-0.17655993,0.23406039,-0.14940436,-0.00480294,-0.1838001,-0.10063943,0.49082384,0.84776121,0.52892929,0.52439606,0.8986907,-1.44069,-1.6311996,-1.4778311,-1.7635921,-2.0295436,-2.1522985,-1.2096274,-0.25601614,0.50241941,1.4335707,1.3301808,1.109121,0.96790338,0.73320001,0.52420598,0.79606235,0.26968104,0.46481031,0.68405849,0.99079013,-1.7091161,-1.7359883,-1.4960266,-1.6719917,-1.1482607,-0.88522786,-0.18421151,1.1934847,1.8536317,1.7658237,1.7811356,1.1889917,0.9464463,0.31539407,0.02969438,-0.92290014,-0.92659664,-0.050874796,0.4601953,0.94504458,-1.8912088,-1.3297607,-0.80481553,-0.53678584,-0.47909471,0.20073068,1.7200454,1.1047508,1.120779,0.84065247,0.027212346,0.16922832,-0.21999906,-0.026888009,-0.51086295,-1.1397315,-0.70449221,-0.14178059,0.39850757,1.0758901,-1.5415044,-0.85110897,-0.62299258,-0.23862821,0.059605967,1.2595628,1.1386232,0.64560258,0.086289294,-0.50847077,-0.63164389,-0.74105841,-0.55924976,-0.37941256,-0.35998178,-0.28517359,-0.10648493,0.14225933,0.57493067,0.65841186,-0.93823946,-0.88814223,-0.94870722,-0.54952949,0.32390812,0.97464645,0.64973634,-0.007891852,-0.27736026,0.006782702,-0.2346023,-0.66190147,-0.53228289,-0.31084815,-0.089027561,-0.083072081,-0.38645858,0.10808898,0.27479699,-0.073724948,-0.36644474,-0.55095768,-1.1050411,-0.47672656,0.21198379,0.76542711,0.9796921,-0.29117218,-0.68811625,-0.33097088,-0.5340535,-0.16195008,-0.29133326,-0.19734231,-0.19792731,-0.25757807,-0.37579188,-0.56903285,-0.60150087,-0.45884022,-0.29786044,0.073656566,-0.75916004,-0.46525717,-0.015850453,0.59926534,0.44985381,-0.482743,-0.87718397,-0.90738088,-0.86565852,-0.036388434,0.2331394,0.41700304,-0.04299026,-0.35035908,-0.81687909,-0.75155687,-0.59664232,-0.34668076,0.25446883,0.27157164,-0.22568554,-0.25359228,-0.1392822,0.035220329,-0.10603505,-0.69924515,-0.66697741,-0.56895411,-0.59364796,-0.15377411,0.23276982,0.003102016,-0.59161162,-0.96325511,-1.1230068,-0.71568388,-0.44860053,-0.22628628,0.49468642,0.76820391,1.1055299,0.81029075,0.30523151,0.11487826,-0.000774642,-0.52157009,-0.34038165,-0.46405292,-0.25764599,-0.13006084,-0.39455599,-0.43769509,-0.8925373,-0.85169113,-0.66984612,-0.37092784,-0.21998854,-0.07493826,0.78534704,0.6135295,1.0442632,1.1100612,0.45563114,-0.011933926,-0.076037951,0.11299349,0.29106855,-0.19923426,-0.40724164,-0.30462331,-0.61408281,-0.62267578,-0.7521553,-0.65331477,-0.50273252,-0.17642713,-0.000932173,-0.073333442,0.63572389,0.53851867,0.73223209,0.31583557,-0.077579036,-0.23019899,0.039992973,0.16372444,0.14504918,-0.39033362,-0.55115557,-0.47112501,-0.53383583,-0.61172956,-0.7709462,-0.63922077,-0.34990224,-0.10964573,0.074823976,-0.042612981,0.68558502,0.67377293,0.5763315,0.30243599,0.08024101,0.18164742,0.34823,0.34001184,0.023296224,-0.34371221,-0.68404669,-0.51252818,-0.40460336,-0.42362899,-0.48478991,-0.38658684,-0.24098353,-0.11264025,-0.006710391,-0.011015443                                                                                                               },
{-0.011477306,-0.05745158,-0.080734313,-0.18874373,-0.40390071,-0.52403766,-0.55288291,-0.63090688,-0.68914884,-0.59160185,-0.13691199,0.19179851,0.20919493,0.34139335,0.89505655,0.85612923,0.64607215,0.53847438,0.31651548,-0.039666414,-0.13387495,-0.19151074,-0.050229345,-0.31673715,-0.63085288,-0.82462138,-0.77278715,-0.77633172,-0.90319794,-0.73132461,-0.46656105,0.36893508,0.81554765,1.2142855,1.5100975,0.92371559,0.29374248,0.20682122,-0.066373393,-0.4457162,0.001023174,-0.016807104,-0.13840218,-0.58648849,-0.9812265,-1.0158453,-0.39694083,-0.073337384,-0.5219934,-0.46081001,-0.31891599,0.34904191,1.0398718,1.6323729,1.732312,0.93128288,0.10199918,-0.2878646,-0.69826943,-0.94306135,0.066602111,-0.12508143,-0.46312633,-0.93240231,-1.3624308,-0.99536568,-0.079669386,0.29885894,0.072555885,0.14532508,0.49766964,0.88696408,1.3507402,1.2416643,1.6892269,0.95337439,-0.081310734,-0.74881846,-1.2277654,-1.351607,0.1162564,-0.27010474,-0.93714595,-1.2007768,-1.4950612,-0.660909,-0.083768882,0.28335148,0.39897665,0.44605947,1.0138272,1.3039079,1.3400916,1.262512,1.3049986,0.51953822,-0.32788345,-1.5309172,-1.8477714,-1.4481757,0.18087323,-0.36595464,-1.4258813,-1.625023,-1.3761114,-0.5700193,-0.30509266,-0.74224257,-0.19099075,0.043017861,0.95888269,1.1690055,1.2700808,2.02141,1.4443467,0.23657024,-0.040482216,-1.3233758,-2.2732265,-1.7213489,0.20177473,-0.68654901,-1.7009872,-1.8408109,-1.0405116,-0.42627096,-0.43412283,-1.1032509,-0.34961873,0.6372385,1.5244524,1.3426425,1.4046446,1.962429,1.6838869,0.60567683,-0.013835889,-1.0707083,-2.2403424,-1.7275244,0.31423044,-0.62139565,-1.5012598,-1.2193406,-0.72446215,-0.28552118,-0.082852341,-0.60056788,-0.32678285,1.3236259,2.0693207,1.2855189,1.0232228,1.7334155,1.8664411,1.3906215,0.17753898,-1.5679853,-1.9341574,-1.7412673,0.29519323,-0.39010644,-0.58822769,-0.91472703,-0.50435001,0.31448412,0.35058168,-0.50477588,0.107102,2.4460118,2.3951015,1.4011449,0.72636539,1.1263641,1.169017,0.81426859,-0.56941932,-1.7916075,-1.7607009,-1.506839,-0.17980598,-0.33877563,-0.56059915,-0.64556408,-0.40178192,0.20878869,-0.25758323,-0.50261015,0.03986923,1.8439651,1.276931,0.71336031,0.56772035,0.63621414,0.79834563,0.32504177,-1.2163421,-1.9502674,-1.7931249,-0.60673219,-0.25558025,0.35985443,-0.64754367,-0.90088409,-0.75314176,-0.11337569,-0.53645056,-0.45385733,0.48366532,0.97637695,0.23426847,-0.24248748,0.14608572,0.09076865,0.73768073,0.34489414,-1.1182258,-1.5722158,-1.2043968,-0.16201651,0.18332572,0.92114401,0.31894538,-1.0202259,-0.5546248,-0.87536162,-0.23506995,-0.50247937,0.23088075,0.75614822,0.9188261,1.0185571,0.56857598,-0.21223474,-0.01693579,0.057674866,-0.84534681,-1.4445614,-1.1101038,-0.43824491,0.083327889,1.0001847,0.70439517,-0.51261055,-0.74200857,-1.2124262,-0.56741273,-0.74926275,0.22129382,0.42846051,1.0423002,0.63307321,-0.28201839,-0.23598133,0.094239809,0.30831683,-0.15293503,-0.83671653,-0.97127587,-0.92746896,0.19418821,0.91528475,0.29934964,-1.3067664,-1.3107865,-1.5049062,-1.4213897,-1.2502739,-1.1389842,-0.54711396,-0.30645424,0.02830334,0.053372797,-0.077819012,-0.065133885,0.3067373,0.022216406,-0.52068847,-0.74247515,-0.9557603,0.15419564,0.43079185,-0.11423502,-1.0973736,-1.6767757,-1.4507612,-1.3696259,-1.644783,-1.4950085,-0.95139802,-0.79865152,-0.5420475,0.10662142,0.36861137,0.3554433,0.093336947,-0.30219948,-0.51214349,-0.79145074,-0.9618184,0.35277799,0.060786821,-0.67682725,-1.3114063,-1.2001204,-1.1314611,-0.84884644,-0.49764189,-0.59874713,-0.98963529,-1.3069273,-0.69151533,-0.14856607,0.23837087,0.60774738,0.05394268,0.044071294,-0.26453528,-0.66440773,-0.73316985,0.32147929,0.07626716,-0.52483958,-0.61560065,-0.54854727,-0.62369233,-0.28067139,0.18512481,-0.51949078,-1.0592194,-1.0718309,-1.0121331,-0.44228262,-0.076369837,0.33257154,0.27956384,0.005271788,-0.11684658,-0.26956761,-0.61196905,0.075032607,0.071270674,-0.036967639,0.095941804,-0.017782439,-0.22310796,0.10112245,-0.013269238,-0.41299585,-0.66666901,-0.77961123,-0.66527295,0.060642369,0.17518848,0.38510382,0.52281028,0.33235005,0.15823592,-0.2039876,-0.27622914,-0.0222762,0.25331539,0.014902811,0.39862895,0.30908802,-0.21100625,-0.24268095,-0.28140345,-0.62015468,-0.4907864,-0.39002046,-0.37202224,0.56117827,0.53906864,0.75672901,0.96162641,0.76715386,0.46887809,0.30113581,0.23496631,0.069014348,-0.007221945,-0.31226602,-0.37000555,-0.28667536,-0.97430021,-0.40951669,-0.32496935,-0.58411998,-0.17857467,-0.12795614,0.11460213,0.89190263,0.75227159,1.3295835,1.5946125,1.2456365,0.78899592,0.49891827,0.34044507                                                                                                                                                                                                                                                              },
{-0.001495328,-0.008957718,-0.040718284,-0.17311935,-0.14373988,-0.15577501,-0.087683737,0.062027477,0.09285488,0.14611872,0.1415503,0.049025379,-0.1057748,-0.26127169,-0.30791557,-0.22723715,-0.42332724,-0.36290285,-0.28804675,-0.25977314,-0.006112544,0.034668297,0.014890339,-0.30370224,-0.13804451,-0.22231486,-0.32261315,-0.28286508,-0.24321441,-0.045022663,-0.018190937,-0.14436595,-0.1694372,-0.159262,-0.2679911,-0.4348734,-0.68464094,-0.65858561,-0.53209591,-0.35956886,-0.0162556,0.038653411,-0.068430491,-0.46893874,-0.23579709,-0.19450028,-0.53299105,-0.57883292,-0.30183089,0.065097116,-0.049172964,-0.14647609,-0.29738745,-0.27210742,-0.3044982,-0.84760714,-1.3210007,-1.2687351,-0.44167945,-0.078513645,-0.049193125,0.071151152,-0.052887071,-0.46521449,-0.23816743,-0.40330809,-1.0397129,-0.48908049,-0.10743591,0.2350391,0.43842027,0.1959585,-0.40995508,-0.12239932,-0.37141392,-0.96076232,-1.415131,-1.1527796,-0.24428892,0.59669697,-0.09730123,0.39166301,0.27812782,-0.40238392,-0.16906163,-0.42736399,-0.69468963,0.35491133,0.49923307,0.20013621,0.28883696,-0.060030449,-0.064725816,0.062891312,-0.76989877,-1.2919158,-1.2983779,-0.7643339,0.45036864,0.66212147,-0.17282636,0.50168461,0.33902788,-0.003844659,0.07683263,-0.58019567,-0.431802,0.16715246,0.24868025,0.61476755,0.18568963,-0.4557291,-0.19871721,-0.02075856,-0.99558699,-1.1466713,-1.1486881,-0.27424625,0.64631635,0.76438993,-0.2728858,0.47335395,0.89058399,0.59864891,0.17797312,-0.32966909,-0.079257227,0.4283897,0.32088766,0.62063938,-0.38853291,-0.57776678,-0.033903252,0.1270988,-0.77899492,-1.8082846,-1.5640976,-0.10980802,0.97552502,0.73554552,-0.31848809,0.36230066,1.373623,0.4947131,0.815005,-0.24763234,0.14229971,0.11060293,0.26067322,-0.28935573,-0.92444074,-0.78883797,-0.026918281,-0.068482563,-1.1027224,-1.5040789,-0.52861327,0.34830856,0.36650056,0.073416181,-0.39824167,0.29303735,0.91982317,0.49980342,0.20722198,-0.35228637,0.15826526,0.03047603,-0.60050976,-1.4134648,-1.0208182,-0.7732929,-0.40104482,-0.26524383,-0.78127331,0.23014753,1.6516358,1.2954082,0.45921388,-0.23316801,-0.59089953,-0.11390062,0.45938385,0.80290365,-0.085893251,0.42254412,0.12317646,-0.20290455,-0.45708415,-1.1730924,-0.42416042,-0.87067032,0.29323789,0.47467881,1.123215,1.4507914,1.6635557,0.46651885,-0.56953847,-0.30596715,-0.97156447,-0.19747101,0.14230998,0.071443327,-0.29521191,-0.29508632,-0.89339954,-0.77722734,-0.45084131,0.13116324,0.73699498,1.0708684,0.8612957,0.64670485,0.28707844,0.15193504,-0.68187982,-1.5179129,-1.8659903,-1.1743423,-1.0478663,-0.34648323,0.081359044,-0.64029735,-0.49027807,-0.49075943,-0.64604253,-0.70874709,0.74593836,1.3597287,1.1892942,1.3549834,0.77097929,0.26802254,-0.71612793,-1.6813601,-2.7355857,-2.9123082,-2.2798107,-2.314925,-0.85627258,-0.84993005,-0.23348074,0.013277236,-0.24825934,-0.23807016,0.53982407,0.78832567,0.55380368,0.46781138,0.38589948,0.84892929,1.2392302,-0.006057882,-0.80457389,-1.8815732,-2.3086374,-2.1819127,-1.7622625,-1.9363488,-0.83206069,-1.0931332,-0.27283818,-0.17397693,-0.40658373,0.059938338,0.81308901,0.61822063,-0.85360372,-0.9350583,-0.09239988,1.6496098,0.43876785,-0.091533817,-0.81572419,-1.5016025,-1.6116211,-1.6636764,-1.4961457,-1.6762338,-0.41511896,-0.68803674,0.10033784,-0.14772719,0.1931241,0.10356754,0.22043656,-0.90715057,-0.82352901,-0.009485956,0.85691488,1.0852758,-0.23781343,-0.022059627,-0.53102911,-1.184167,-1.3088138,-1.3319954,-1.4744556,-1.2320651,-0.2283694,-0.80299467,0.56263864,1.0236543,0.43556115,-0.18790904,-0.36282569,-0.22917841,0.38082588,0.61156911,1.0431929,0.14544211,-0.5592531,-0.091112584,-0.085963286,-0.75433964,-0.9632138,-0.98197073,-0.9634282,-0.9094612,-0.012967323,-0.83554506,0.48895121,0.6473189,-0.40531185,-0.5509814,-0.025777061,0.4972451,0.65867382,0.8128289,0.51882803,-0.10845855,-0.593108,0.085034758,0.2120744,-0.41219476,-0.6703921,-0.65772653,-0.59675521,-0.55610991,0.55805975,-0.26323861,0.53617299,0.36395428,0.029903522,0.079620011,0.41677228,0.96214902,0.83294344,0.46236205,-0.018706169,-0.09103179,-0.23695305,0.061116681,-0.21265109,-0.67469043,-0.52120531,-0.39316189,-0.26623952,-0.19567855,0.33178365,-0.19188727,0.099053867,0.060742088,0.03402698,-0.053986162,-0.031160455,0.20894575,0.15160125,-0.37348884,-0.38561773,-0.20579681,-0.39326328,-0.10654061,-0.37777156,-0.77853352,-0.44531238,-0.34210706,-0.23744883,-0.11820156,0.18824998,-0.00524966,-0.24616762,0.018659914,-0.090148605,-0.4109326,-0.27238846,-0.1826728,-0.086877793,-0.10413156,-0.14393432,-0.21620463,-0.40690985,-0.03212158,-0.27072787,-0.80341297,-0.35362798,-0.1499014,-0.12575315,-0.14800233                                                                                                                                                                                   },
{-0.020713465,-0.011150602,-0.057206355,-0.022856874,-0.07029967,-0.13314281,0.008059813,0.135178,0.030680643,-0.23858131,-0.72675025,-0.72983307,-0.66993457,-0.41494322,-0.46556243,-0.23465444,0.1108578,0.20059469,0.001155647,-0.090552501,-0.022799332,-0.23292422,-0.34880117,-0.15883875,-0.14182468,0.098633803,0.052654888,0.18204862,0.13440834,-0.10737354,-0.24126054,-0.65118217,-0.51352775,-0.18439819,0.016082393,0.10435264,0.40851623,0.34384912,0.37623978,-0.027973624,-0.061580513,-0.41689184,-0.6725992,-0.22106019,0.5153113,0.47697419,0.20580021,0.081184208,0.65689266,0.30450124,0.096354581,-0.3706781,-0.64900655,-0.062599093,0.29644457,0.49823335,0.65639627,1.0915123,0.80566162,-0.37948561,0.13603763,-0.33876473,-0.39341486,0.10153496,0.6805144,-0.12416474,-0.14137849,0.70190352,0.92773747,0.27019095,-0.31106329,-0.39369148,-0.52193004,-0.6810624,-0.23557416,0.20266418,1.1609873,1.5870651,0.98175722,-0.34198487,0.17001377,-0.59578967,-0.3292141,0.59786683,0.31428769,-0.30548847,0.46571809,0.74312133,0.53067464,0.31386679,-0.44280335,-0.43166763,-1.2413496,-1.4353496,-0.92704296,-0.23822507,1.39766,2.1592736,1.8700675,1.140766,0.41586134,-0.3028717,-0.077480823,-0.28450724,0.067459583,-0.10139196,0.026121197,0.43667346,0.48403528,-0.15574369,-0.69025618,-0.58750218,-1.1296074,-1.5162747,-1.1032964,-0.16926093,1.7937521,3.1376216,2.7026157,1.9034002,0.28524706,0.3678062,0.31644958,0.33825192,0.32511628,-0.3758066,0.40451899,0.62687862,-0.72928542,-0.53210467,-0.21887326,-0.65348977,-0.6136691,-1.1792597,-1.3076558,-0.10664059,2.0842516,3.2911029,2.5887487,1.1752366,0.17362826,0.8037082,0.37447101,1.0561367,-0.63859564,-0.69950676,-0.553379,-0.77413583,-0.33127269,0.32833052,1.0665356,0.011311333,-0.35407957,-1.0152112,-1.6291918,-0.83053249,1.5918201,3.5713098,2.4192436,1.4034548,0.31231332,0.67769367,0.38877022,0.29974991,-0.035256591,-0.79483312,-0.97960222,-0.90450239,-0.34957996,0.34436464,0.22393642,0.044932362,-0.40083364,-0.027579216,-0.31889555,0.78803819,2.8157444,3.964803,2.5722413,1.3697879,0.59476942,1.3621049,0.86493886,0.80514181,0.036058873,-1.0802346,-1.0292318,0.19208393,-0.043600205,-0.39851621,-0.50672603,0.29083204,0.40731496,0.48150876,-0.82131606,0.37130925,2.5578561,3.8769882,2.870605,0.69280738,1.1430119,1.6422778,1.1677128,1.0910894,0.3747685,-0.56074715,0.47165972,0.24143495,-0.89915323,-1.1263691,0.21858539,-0.07967817,-0.58567917,-1.0276161,-2.3945796,-1.2489426,1.0664659,3.7539988,3.3496954,0.50539345,1.5986787,1.6501106,1.2535676,2.1370409,0.46700847,0.022303617,0.18696292,-0.2381676,-0.63858998,-0.34589729,-0.66515833,-0.91881859,-1.6480917,-2.8257318,-2.8335016,-2.0316303,0.80624568,2.804208,2.1257803,1.3066266,1.5577688,1.4203252,0.41709587,0.87274617,0.84232163,0.13486537,0.3030985,-0.3550193,0.051276494,-0.59412146,-0.93270862,-0.4813166,-1.029754,-1.2824273,-2.4642777,-2.3192134,-0.63602328,0.65964788,1.6212738,1.7057463,1.2610095,1.5730317,-0.27163786,-1.1946738,-1.0582809,-1.100149,-0.52964479,-0.99474651,0.12555216,-0.85787779,-1.2386113,-1.2780908,-0.73083913,-1.2224131,-2.1255021,-0.45848808,0.34970686,2.3956356,1.9509258,1.525589,0.99480468,1.9983287,0.26246309,-0.36110035,-1.3097861,-2.2532344,-0.60521269,0.087684035,-0.14893867,-0.31719321,-0.9057197,-1.2842728,-1.6954601,-2.1296747,-1.2813926,0.22083721,0.83561939,1.8968445,1.9788252,1.8116779,0.75609112,1.8073698,0.80573273,-0.091554314,-0.65771693,-0.848692,-0.43068036,-0.44551626,-0.45693138,-0.33980423,-1.3102041,-1.626725,-1.6140748,-1.253126,-1.111272,0.29517314,0.97452247,1.532671,1.6654369,1.2309185,0.16726582,1.2689165,0.33416843,-0.047826324,0.18674856,0.11035872,-0.71269053,-1.167788,-0.98611218,-1.0420296,-1.542986,-1.6583824,-1.6306111,-0.92964989,-0.23631586,0.29695994,1.258212,1.7424092,1.1896814,0.74779689,-0.2959204,0.98835355,0.78332865,0.58978927,0.12265179,-0.15145454,-0.35232067,-0.58609664,-0.352406,-0.61499858,-0.91188085,-1.234722,-1.0081114,-0.80429953,-0.139699,0.38975894,1.2337179,1.2632264,1.0001767,0.27784526,-0.47907975,0.14869396,0.46937826,0.39321196,0.2209278,0.47148046,0.58968872,0.19551755,0.12891886,0.018720329,-0.51333427,-0.68749243,-0.32639778,-0.087738089,0.35940391,1.1344572,1.3170092,1.0635117,0.51976931,0.01119346,-0.19824593,-0.36249211,0.29070038,0.34982216,0.5519492,1.2937667,1.5097077,1.0545558,0.84009308,0.31155142,0.044756215,0.25274318,0.56136215,0.43911266,0.93357766,1.0703182,0.75045717,0.41941965,0.15210105,0.087139167                                                                                                                                                                                                                                                                                                                                                    },
{-0.008683722,-0.068202615,-0.14713357,-0.21474577,-0.34914705,-0.3984381,-0.42420027,-0.41756478,-0.40607464,-0.28572491,-0.5504393,-0.5209989,-0.45691264,-0.5689227,-0.46248281,-0.32021552,-0.19244497,-0.26222485,-0.42080382,-0.26469508,-0.024280533,-0.28204462,-0.2638098,-0.41628477,-0.73688811,-0.73564571,-0.61727631,-0.53068966,-0.36014917,-0.13342154,-0.082522817,-0.6096223,-0.74237889,-0.81152809,-1.112965,-0.16515289,0.052121691,0.048732787,-0.29335877,-0.2396189,-0.12746441,-0.3563447,-0.41088545,-0.658261,-0.87528414,-0.84771663,-0.65900743,-0.29351756,0.083119377,0.015056163,-0.43936053,-1.4724954,-1.4600923,-1.1670812,-1.0563704,-0.40063578,-0.23566444,-0.12754326,-0.026893141,-0.071023509,-0.15255792,-0.37257528,-0.28066161,-0.45285401,-0.71260983,-0.15525442,0.38427198,0.22883922,-0.16018608,-0.68584806,-0.62410754,-0.27874583,-0.53892487,-0.66609025,-0.56480062,-0.14400153,-0.13709292,-0.40550596,-0.22695719,0.1949576,0.042818408,-0.24631704,-0.3457807,-0.59723794,-0.32626849,0.47208035,0.40990365,-0.45421544,-0.8985818,-0.31210551,0.31641033,0.59780735,1.0500146,0.60556018,-0.028773062,-0.37099919,-0.29139057,0.17293783,0.54545695,0.52790523,0.35255206,-0.22217576,-1.0763285,-0.4449563,0.38566995,0.4847315,0.28691879,-0.62796885,-0.19230215,0.36433315,1.8447716,2.7984273,2.3138685,1.8409503,0.59778225,-0.18832485,-0.18809058,-0.22481607,0.69564575,0.75104964,0.1057185,-0.2627441,-0.80484283,-0.46888205,0.49220523,0.92226791,0.16418135,0.070741661,0.69266289,1.5993506,3.070817,3.9428864,2.9256568,3.3355284,2.0479941,1.7131449,0.46449223,-0.21674421,-0.044625912,0.36688596,-0.67507374,-1.6130217,-0.74991286,0.3562285,0.24774532,0.14040697,0.19911464,0.30183291,1.8747481,1.9053721,2.0549848,1.4133322,1.8228933,2.4982312,1.6442763,2.6152883,1.8831018,0.34517914,-0.51191396,-0.59885764,-1.1030917,-1.6263661,-0.30800802,0.22261071,0.40779477,0.23595697,-0.69172829,0.54189324,1.9207256,0.75327224,0.068146139,0.10678682,-0.33544609,0.28903481,0.49277249,1.7779279,1.8027314,0.43699998,-0.20189434,-1.0561473,-0.68474424,-0.33127937,0.034695581,-0.56712586,-0.83668655,-1.3816973,-0.40017533,0.82452929,0.64197183,-0.98300481,-1.4357879,-1.4156064,-1.6888707,-0.76786035,-0.49208418,0.031004876,-0.005682716,-0.045830492,-0.005466198,-0.64271981,-0.6172567,-0.40948451,-1.1168243,-1.1800141,-1.0713031,-0.99223053,-0.1013535,-0.27960989,-0.96646297,-1.8178965,-2.5087676,-1.7153238,-0.9733029,-0.49867186,-1.0597627,-0.89524204,-0.62136328,-0.20901115,0.44103721,0.61061639,-0.65929013,-1.0304673,-1.9935423,-0.80989271,-0.081056766,0.35688135,-0.21498115,-1.1068752,-1.4680085,-2.4309027,-1.9774016,-1.3421136,-0.32205477,-0.4152537,-0.28739166,-0.56532133,-0.77688509,0.44350573,1.6035063,0.65741724,-0.34212819,-1.5800289,-0.95411885,0.035326216,1.1699308,0.74832773,0.053251423,-0.59558177,-0.84370077,-1.4712708,-1.1044971,-0.093449213,0.76918054,0.37079427,0.024713062,-0.85422081,-1.0559046,0.005629597,0.41355196,-0.079031989,-0.1304394,-0.18928216,-0.41789514,0.30148181,0.4503195,0.39674529,0.090579867,-0.10590919,-0.37802005,-0.46663067,0.22541241,0.7625609,0.91690117,0.26992613,-0.52098387,-1.0429113,-1.2290924,-0.53544128,-0.2058346,-0.02192037,-0.29940909,0.58339524,-0.71289951,-0.042506594,-0.28687602,-0.98918307,-0.70894903,-0.46813053,0.10356761,0.57096303,0.32270783,0.34733605,-0.39149621,-0.47866586,-0.51867425,-1.0307102,-0.66468459,-0.11890204,0.099575356,-0.2280622,-0.10679074,-0.018638769,-0.95783949,-0.52198875,-0.67861348,-0.91017681,-0.69849175,0.30635616,0.45076627,0.56799221,-0.48259497,-0.7738871,-0.67609608,-0.78825206,-0.6807003,-0.60127032,-0.41239107,0.090853117,-0.088625014,-0.65869093,0.21646725,-0.65542752,-0.78053147,0.26356155,0.48224071,-0.40096965,-0.034880739,0.40914497,0.44423464,-0.13865997,0.22644553,0.35771194,-0.47660652,-0.81643003,-1.0097106,-0.41413,-0.25335616,0.066926032,-0.73323274,-0.58863384,0.35597003,-0.40074679,0.007371964,0.026445922,0.25326714,-0.4521755,0.32552242,0.7789979,0.72386545,0.56895322,1.0312192,0.80244809,-0.33337659,-0.35147518,-0.22414397,-0.08329203,-0.33892909,-0.476937,-0.37627608,-0.47797531,0.38661587,-0.12426379,-0.23951966,-0.74687988,-0.74470842,-1.3013149,-0.43275166,0.053904325,0.68928057,0.76407129,0.79307932,0.34855911,0.16747119,0.11106451,-0.39598712,-0.53040546,-0.61304128,-0.27247649,-0.26221102,-0.29447952,0.3203975,-0.13537583,-0.88825113,-0.87862891,-1.2187058,-1.0948614,-0.53910822,-0.078987919,0.45437327,0.83316743,0.60752338,0.43400612,0.31897584,0.12042216,-0.26673639,-0.53968424,-0.4154025,-0.097583286,-0.18444389,-0.14664349                                                                                                                                                                                                      },
{0.024019767,0.095890455,0.19333655,0.21580492,0.013313978,-0.26375738,-0.51874107,-0.7086069,-0.69628847,-0.43180975,-0.30883694,-0.18088149,-0.13408329,-0.031442158,0.098397553,0.39870551,0.49086919,0.45952231,0.29551515,0.42057651,0.047224008,0.22811343,0.43059209,0.26945052,-0.13456462,-0.52298087,-0.82596481,-0.89116073,-0.83739609,-0.67542773,-0.71553904,-0.82753515,-0.89079696,-0.48871678,0.030820688,0.75982189,0.77624154,0.59238404,0.24829604,0.5963642,0.048561882,0.34389272,0.41879296,0.06604334,-0.32831845,-0.55283254,-0.81642544,-0.83252782,-0.74527025,-0.85979337,-1.1513855,-1.7293255,-1.9383906,-1.3749598,-0.21164979,0.74054074,0.84443212,0.62811667,0.35348517,0.47356668,0.07612545,0.30151945,0.10832915,-0.23504902,-0.3064667,-0.059076414,-0.52989137,-0.80900413,-0.80291289,-0.83772433,-1.568843,-2.5259981,-2.5563226,-1.8147759,-0.77159095,0.46150655,0.9157486,0.91983438,0.70067382,0.73778379,0.077962823,0.2453991,0.058996148,-0.25957739,0.039826062,0.001844284,-0.4201301,-0.7318033,-1.3081427,-1.4915345,-2.3133609,-3.2396524,-3.4259851,-2.8333471,-1.4488348,0.30339473,1.476293,1.6058172,1.4044976,0.60872704,-0.026460396,0.065192454,0.11614921,-0.082561605,-0.054725908,-0.15290989,-0.51616961,-0.78088671,-1.1845416,-1.9916192,-2.8382008,-3.5485795,-4.0408521,-3.5760105,-2.3533616,-0.57026571,1.0756407,1.6213938,1.1090374,-0.27390063,-0.096451685,0.5436089,0.53232509,-0.053626008,-0.5066691,-0.099076919,-0.090456173,0.37785035,0.17681627,-1.3056785,-2.594007,-2.9827912,-3.7375467,-4.0870967,-2.7973607,-0.71198732,0.50669229,1.2769964,0.83239061,0.22705057,0.12368181,1.1786169,0.8153742,-0.39900407,-1.21114,-0.41400319,0.5304147,0.78038079,0.71557283,-0.052067008,-1.0216448,-1.300106,-2.7250533,-3.5956688,-2.3306139,-0.78619826,0.10227105,0.84330106,0.33064482,0.014013085,0.31029668,1.2461364,0.46662852,-0.94390196,-1.2175454,0.16501099,0.69734597,0.36887807,1.0845017,1.0389028,0.7389797,-0.21524967,-2.1230733,-2.6404989,-1.9873476,-0.73177862,-0.59499228,0.098786846,-0.12840839,-0.49722585,0.5569824,1.152166,0.7672354,-0.16610803,-0.11044152,0.5426414,-0.46377027,0.067875676,2.1595492,1.899554,0.47202712,-0.68206656,-1.7269716,-1.6236657,-1.1793649,-0.89676917,-0.57226658,-0.58013421,-0.17870407,-0.24191236,0.38900846,0.77987379,0.98493648,0.73329657,-0.2066144,-1.2668663,-1.0070871,1.0298527,3.3513787,2.1613224,-0.16019036,-1.0427092,-1.4141045,-1.4920714,-1.3994431,-1.2041367,-1.2626354,-1.1182166,-0.2630505,0.18375902,0.22410804,0.81327099,0.78889585,0.5996024,-0.67868865,-1.3984815,-0.63163376,1.6630309,2.968291,2.1506202,0.27046016,-1.0403227,-1.4047542,-1.1749851,-0.82632744,-0.865677,-1.5202256,-0.94607621,-0.24417204,0.35931933,-0.13802998,-0.12767161,0.55275321,0.52693641,-0.37627506,-0.93501979,0.11673829,1.8173968,1.9225771,1.4334602,0.45169955,-0.35882905,-0.72187841,-0.49041036,-0.23307833,-0.61171383,-0.82822466,-0.68756539,-0.75485641,0.37911275,-0.12943403,-0.40855297,0.65682995,0.12626798,-0.51299864,-0.57090944,0.60053807,2.2344217,1.2857763,0.32944524,-0.026173305,-0.56410336,-0.92071289,-0.63033682,-0.80821085,-1.0425737,-1.1093801,-1.375569,-0.82341272,0.36342585,0.37604263,-0.044461954,0.14790349,-0.36899593,-0.30948302,-0.62905353,0.23175748,0.88804489,0.90175843,-0.42970705,-1.9111012,-1.9089782,-1.353987,-1.1535033,-1.1060785,-1.1338692,-1.0728028,-1.228971,-0.64344001,0.2228253,0.056068432,-0.41299382,-0.41675049,-0.010014783,0.15591195,-0.18436313,0.03013704,0.27412376,-0.4957149,-1.2402499,-1.9632884,-1.7765819,-1.5444976,-1.1892467,-1.1493293,-0.93281162,-0.80701971,-0.71557528,-0.30545351,-0.062678553,-0.17602228,-0.89266932,-0.86643904,-0.10519005,0.28816026,0.75621104,0.4310022,0.115003,-0.86403751,-1.480824,-1.36982,-1.2759923,-1.0829006,-1.2302543,-0.93786091,-0.56013113,-0.421832,-0.56255525,-0.46179423,-0.2629213,-0.17936787,-0.73076218,-0.89809877,-0.85354269,-0.2831291,-0.13882618,-0.031723276,-0.59621727,-1.0299671,-0.7848838,-0.55196053,-0.28676137,-0.29799482,-0.342103,-0.16776215,-0.14739257,-0.53466666,-0.73607868,-0.58057564,-0.31625855,-0.11577442,-0.25838178,-0.53330803,-0.85208189,-0.39553964,-0.029293828,-0.26095688,-0.80286831,-0.74106747,-0.42045239,-0.14437559,0.21720655,0.39371681,0.035583977,-0.037302446,-0.3161692,-0.58572412,-0.66738927,-0.47459868,-0.35468072,-0.11190321,0.053211764,-0.1763307,-0.39068824,-0.30592436,-0.27133101,-0.44952935,-0.66709417,-0.57889211,-0.4901284,-0.29377428,0.25777596,0.37306657,0.2909404,-0.17771642,-0.33677804,-0.4537521,-0.52913713,-0.27685764,-0.050221998                                                                                                                                                                                                                                                           },
{0.002268056,-0.046969358,-0.061863109,-0.096538708,0.023811236,0.27835914,0.46449825,0.87620735,1.0233099,0.83458465,0.32774699,-0.088984787,-0.052441902,0.004945148,0.04075785,0.050899699,-0.097763628,-0.15688998,-0.14321738,-0.051688924,-0.009819728,-0.067773558,-0.028291082,0.082792863,0.41269878,0.71333796,0.9596203,1.2168616,1.1195194,0.87188005,0.40816623,-0.033778176,-0.13783126,-0.02285634,-0.090827234,-0.14075622,-0.15849687,-0.14069885,-0.16951472,-0.098544657,-0.002602859,0.03948094,0.12204646,0.52911842,0.88348377,1.0270249,0.86340374,0.51443517,0.32601562,0.21645914,-0.14175498,-0.08245527,0.061605565,-0.16558468,-0.30436397,-0.33787844,-0.38914803,-0.30606577,-0.24746108,-0.18272553,0.050426874,0.095410354,0.2154025,0.73837143,1.1457256,0.53815734,-0.035179723,0.04710608,0.34238651,0.17348334,-0.19615844,-0.13405496,0.059597243,-0.33731863,-0.41832352,-0.48177969,-0.55963469,-0.57451338,-0.37684086,-0.22493356,0.1022108,0.12885839,-0.027265942,0.090121441,0.32518089,-0.22805826,-0.76193726,-0.49490198,0.57790869,0.47771609,0.12632689,-0.22530478,-0.27980477,-0.53912228,-0.43693435,-0.40150329,-0.65908754,-0.70534092,-0.55659562,-0.29842669,0.12409794,0.068697371,-0.58921689,-0.6577605,-0.48227268,-0.679259,-0.62331188,-0.30162251,0.21001591,0.25928947,-0.07917051,-0.33131808,-0.64565879,-0.80049384,-0.55106044,-0.56282347,-0.87518305,-0.94445777,-0.69513345,-0.24315764,0.1515003,-0.095926411,-0.9159357,-1.2455328,-0.91964895,-0.53782392,-0.41191182,-0.27645871,-0.19190153,0.19748932,-0.14324941,-0.50703579,-0.90110064,-0.91576469,-0.60071355,-0.8050319,-0.99965,-0.99723482,-0.77420491,-0.30151048,0.23543945,-0.1291052,-0.92145896,-1.4051881,-0.7196086,-0.30671492,-0.30362549,-0.2207066,-0.16821671,-0.034056582,-0.24432401,-0.42184949,-1.1143306,-0.95768172,-0.78268915,-0.90317786,-0.90024263,-0.89964813,-0.94065464,-0.63834155,0.27614689,-0.19343786,-0.81655014,-1.2735993,-0.66645491,-0.40621927,-0.32216296,-0.21008262,-0.46150196,-0.53635746,-0.59615314,-0.72506672,-1.0991343,-0.92996383,-0.52965403,-0.53719634,-0.3423166,-0.47381887,-0.59111267,-0.69132578,0.13657744,-0.34689039,-0.92287886,-1.1359756,-0.75089818,-0.70863456,-0.34486124,-0.43842238,-0.75570673,-0.64931303,-0.82649773,-0.85515767,-0.84597063,-0.35820591,0.24290203,0.16197006,0.11240364,-0.13442087,-0.54262054,-0.69462013,0.1330889,-0.31605577,-0.87249833,-0.98940992,-0.69763553,-0.41201827,-0.45196927,-0.4100118,-0.3843911,-0.2078924,-0.70380533,-0.61135536,-0.31269118,0.39813325,0.99452794,0.83288109,0.74695593,0.20481035,-0.11320597,-0.082240976,0.088602707,-0.23613612,-0.2862131,-0.57373756,-0.4482955,-0.62592655,-0.31219521,-0.044551581,0.37993217,0.2677511,-0.53368622,-0.30149519,0.3491877,0.57312602,0.49405336,0.28434405,-0.007737617,-0.010556743,0.077178612,-0.17544255,0.057366904,-0.1791424,0.27295688,-0.21286133,-0.83172029,-0.91741288,-0.1973829,0.12836185,0.64836854,0.31178713,-0.59703517,-0.5108161,0.11609437,0.26314634,-0.1302432,-0.61128002,-0.79172325,-0.52582639,-0.38488054,-0.42105851,-0.027160911,-0.28701684,0.45523235,0.38248441,-0.58913153,-0.91555279,-0.63139158,-0.073982939,-0.023309857,-0.31086135,-0.37333539,-0.1443689,0.24395905,0.18083477,-0.26795933,-0.58982402,-0.76572901,-0.47607613,-0.36539844,-0.48686191,-0.1122336,-0.35568261,0.18356581,0.71854907,0.065305471,-0.44512552,-0.53012347,-0.19806346,-0.34518349,-0.56477809,-0.23334476,-0.12699823,0.004435824,-0.065773338,-0.13961013,-0.38989788,-0.66312903,-0.42137909,-0.36672959,-0.4054352,-0.097709656,-0.45937869,-0.070975274,0.30067214,-0.22855605,-0.39125335,-0.31075418,-0.45279789,-0.94331467,-0.92809594,0.001866672,0.2444741,0.33027437,0.2681269,0.45745391,0.29536724,-0.26780578,-0.41343054,-0.40159309,-0.21479169,-0.061225455,-0.42600685,-0.41581073,-0.01687008,-0.19265796,-0.16967829,-0.11907875,-0.35652128,-0.45050183,-0.079560302,0.34293005,0.84851295,0.77474052,0.69969076,0.68368667,0.24659719,-0.40862873,-0.34194106,-0.32248661,-0.10735451,-0.042955801,-0.26913369,-0.34561005,-0.093090512,-0.11575021,0.083173268,0.21066946,0.10652746,0.046329908,0.24624059,0.53306717,0.67405391,0.48225278,0.24165903,0.15276438,-0.38737428,-0.73594368,-0.456361,-0.32163668,-0.12889946,0.013022391,-0.11390433,-0.1724478,-0.13121384,-0.024553288,0.10433267,0.382108,0.37641984,0.35017779,0.36470914,0.47254437,0.43611616,0.20236856,-0.011997207,-0.14838965,-0.47762543,-0.47882938,-0.24389634,-0.24828403,-0.27450716,0.034404404,-0.019932358,-0.074067555,-0.073239565,0.006193133,0.082812741,-0.053338043,-0.024366578,0.020265153,0.028974185,0.168798,0.025611054,-0.087005436,-0.11111942,-0.22882129,-0.29430914,-0.24025375,-0.14331317,-0.10762396,-0.18260936                                                                                                     },
{-0.007082975,-0.083343647,-0.10750255,-0.066497631,0.001294291,0.34041888,0.29571536,0.19244729,0.19382471,0.2097981,0.10828713,0.003507052,0.035350513,-0.22107007,-0.35726166,-0.25858977,-0.12113806,-0.088567674,-0.10417435,-0.065171644,-0.02971128,-0.11357734,-0.11125075,0.10613488,0.38883618,0.44488376,0.30145639,0.14019884,-0.21861134,-0.079918407,-0.1110051,-0.079368189,-0.067975082,-0.099251911,-0.26722124,-0.45262942,-0.30549723,-0.21980019,-0.22893733,-0.15499705,-0.058298603,-0.13481851,-0.007883643,0.26666519,0.098143429,0.016756324,-0.096361056,-0.24944705,-0.063540109,0.016290644,-0.10302999,-0.020273972,0.10733902,0.16630518,-0.14847961,-0.4641062,-0.3904762,-0.41708294,-0.33931661,-0.3117592,-0.091365494,-0.023928462,0.084815875,0.06932345,-0.32107797,-0.79085565,-0.89996773,-0.038847581,0.4227818,0.65400833,0.68425024,0.27856576,0.59251314,0.87590486,0.45729229,0.00992066,-0.27662647,-0.38171443,-0.45923415,-0.57458043,-0.28026682,-0.18563275,-0.37809277,-0.29628578,-0.48616263,-1.0062872,-0.82513225,0.28972811,0.77393681,0.5223918,0.32207614,0.12274512,0.32656848,0.50658303,0.37533224,0.20549789,0.022306345,-0.073649727,-0.27132735,-0.67387956,-0.39705226,-0.40334675,-0.4719888,0.18584709,-0.098764978,-0.24414928,0.29018053,0.1461608,0.06165278,-0.28056282,-0.20442884,-0.17884894,0.049171723,0.29045466,0.054441892,-0.34620762,-0.6052866,-0.41855848,-0.14715724,-0.82826495,-0.34152117,-0.4434022,-0.33665133,-0.13507676,0.18628535,-0.23062856,-0.28454927,0.065335967,-0.21539585,0.13966255,0.074324451,-0.03938286,-0.28400859,-0.10979769,-0.28939739,-0.66444224,-1.1492172,-1.0731682,-0.6157738,-0.84622663,-0.44530311,-0.30806363,-0.15477642,0.093751922,0.16234761,0.029301148,0.15850839,0.73342562,0.6754846,0.27281418,-0.35474905,-0.32399356,-0.37974921,-0.44464293,-0.27587008,-0.78079665,-1.3392831,-1.5326889,-1.3181578,-1.1772175,-0.45818764,-0.36841118,0.007243758,0.26200753,0.044860903,0.26385623,0.24932022,0.1921003,0.27475703,-0.55430108,-0.85745811,-0.56015795,-0.057222359,-0.32006741,-0.79237312,-1.0859804,-1.4358411,-1.3896645,-0.53533518,-1.0432502,-0.59836501,-0.41940835,-0.468528,-0.12477069,-0.6542899,-0.43593568,0.018337397,-0.33420953,-0.41077676,-1.1088015,-1.2127081,-0.98377472,-0.36402547,-0.46961826,-0.44719097,-0.71691918,-0.56728393,0.11684661,0.58253747,0.064111374,-0.66654712,-0.081136309,-0.31951088,-0.7380203,-1.3070639,-0.58781642,0.54009372,0.3951942,-0.022672981,-0.19981542,-0.55917466,-0.492026,-0.76828676,-0.15205279,0.79054862,0.99529278,1.3918231,1.3648795,1.853842,1.8429295,-0.67595857,-0.048155259,0.43870029,0.033038866,-0.65667444,0.20203382,0.93976456,1.3835716,1.6921331,1.1478536,0.367603,0.8227883,0.93132311,1.0174209,1.3129607,1.7249814,1.7162446,1.2890432,1.129218,1.7540594,-0.27084604,-0.04489791,0.95319837,0.58449483,-0.64562696,-0.13196255,0.34404197,0.37305385,0.55221838,-0.029594285,-0.070139848,0.37808585,0.46693239,0.36617157,0.14265151,0.050334886,0.70442665,0.19776633,0.4917278,0.80883706,-0.004427738,0.17950328,1.2515666,1.2003855,0.26169017,-0.16270986,-0.72915578,-0.87839127,-0.94748724,-0.75843865,0.000962941,0.51149029,0.077342257,-0.03516845,-0.45862725,-0.75658202,-0.40207484,-0.74386561,-0.79202861,-0.95639896,0.029843187,0.32172164,0.97422004,0.60849786,0.23216724,0.16232033,-0.42593527,-0.51983178,-0.085912138,-0.24231546,0.052212439,0.11356924,-0.11578558,-0.090477988,-0.55321521,-1.2842821,-1.3848113,-1.5057842,-1.308467,-1.0991333,-0.035806738,0.19470145,0.20862919,-0.076371744,-1.0079637,-0.56914687,-0.34007639,-0.46359819,-0.48497823,-0.20762469,0.19287649,0.15542541,0.15445371,0.15935396,-0.019076964,-0.45293984,-0.89558333,-0.97945046,-0.85800362,-0.67223603,-0.001495666,-0.067500003,0.15153745,-0.10795437,-0.19735661,-0.15997732,0.039279379,0.069991581,-0.14066598,0.1696936,0.1663813,0.46214291,0.52872634,0.11567789,0.23017688,-0.17922626,-0.66583258,-0.62592101,-0.64142764,-0.54859453,0.055610146,-0.26333547,0.002284381,0.018461835,-0.016629109,0.0801633,0.3372992,0.4615266,0.27374777,0.25835064,0.24895306,0.52471572,0.31220567,0.048871126,0.097639784,-0.28945762,-0.57207292,-0.23537484,-0.39901796,-0.28856662,0.006281318,-0.22800137,-0.41499788,-0.28523061,-0.21195604,0.11188126,0.32532224,0.41078743,0.27791336,-0.003689958,-0.036246493,0.19872835,0.12968768,0.065086462,-0.18899475,-0.67257506,-0.55892932,-0.2196057,-0.18056105,-0.17381218,-0.020006811,-0.13232851,-0.27687791,-0.27939647,-0.22228555,-0.080870159,-0.22693425,-0.38635141,-0.3586145,-0.47986403,-0.15033332,0.063423395,0.12716895,-0.035146363,-0.47901773,-0.55413228,-0.39432904,-0.17253652,-0.070487306,-0.050611731                                                                                                                                                   },
{-0.008616374,-0.066151537,-0.090258889,-0.12430074,-0.063024789,-0.011998596,-0.25448433,-0.34142041,-0.24207498,-0.09681429,-0.033006173,0.11819977,-0.022548785,-0.16562872,-0.2117178,0.076662131,0.094893202,-0.26171237,-0.24950559,-0.016683798,0.039735831,0.066109397,0.1015766,0.053605407,-0.068840228,-0.11105369,-0.37261069,-0.55370623,-0.26358959,0.069192246,0.28504911,0.31013101,0.16942218,-0.12658583,-0.11728946,-0.11240362,-0.030680373,-0.34602493,-0.40644395,-0.023055743,-0.004682385,0.013904184,0.005587344,-0.13749357,-0.16943929,-0.17006402,-0.14023016,-0.37939039,-0.17955384,0.074975364,0.38948637,0.072888337,-0.34245566,0.12766586,0.50667864,0.32524213,0.11081754,-0.22943392,-0.69068325,-0.0227223,0.022778554,0.14069763,-0.055740435,-0.13315523,-0.20097813,-0.21593627,-0.31020164,-0.46646556,-0.47876665,-0.065651476,-0.060507815,-0.48366001,-0.35904199,0.29650792,0.52165109,0.27479559,0.61575806,0.26681042,-1.1879054,-0.63539636,0.12300666,0.1578415,0.1317713,-0.073692739,-0.50106037,-0.4481402,-0.41133574,-0.28084889,-0.35964352,-0.13619672,-0.057379041,-0.36281684,-0.22693776,0.080801733,0.48529568,0.85498661,1.157228,0.7985155,-0.67884141,-0.50183934,0.32737494,0.26480424,0.42934451,-0.20442908,-0.47652301,-0.43575004,0.25805166,0.4374308,0.43717253,0.41687012,0.58162481,-0.34401757,-0.35395795,-0.055536188,0.081141002,0.29739484,0.86495745,0.21221574,0.043161847,0.097683273,0.42558759,0.95849621,0.74671513,-0.14843853,-0.78041822,-0.10061981,0.35219881,0.83733732,0.700104,0.32831702,-0.28511637,-0.010522063,0.10601637,0.24676354,0.11432356,-0.071227252,-0.092486091,0.063718297,0.011858904,0.85725087,0.74470127,0.45840573,-0.30947971,-0.53504241,-0.83406276,-0.13981095,0.33359224,0.3987976,0.37682438,-0.42173785,-0.63071096,-0.14879242,0.53041422,0.25681108,-0.49248469,-0.034071434,0.31701156,0.69705242,0.74201524,1.155588,0.065091096,-0.17775264,-0.79447055,-1.2049792,-0.51297909,0.27030683,0.75512803,-0.061586604,0.15182373,-0.23539771,0.27624762,0.71111709,0.24390233,-0.39414456,-1.2384498,-0.35302931,0.27425912,1.1251565,1.0942591,0.80555665,-0.31007144,0.17023937,-0.5099197,-1.2566518,-0.34425271,0.59926862,0.098436885,-0.36129212,0.067505918,-0.032913242,0.25439695,-0.021315137,-0.045367237,-0.48659682,-1.5154995,-0.59707999,1.044438,1.4304768,1.5983462,1.0600035,-0.71971989,0.068068735,-0.63703847,-0.47917375,0.12305323,0.12559405,-0.82313597,-1.2225823,-0.20868561,-0.072481342,0.35752285,-0.17410506,-0.36309871,-1.1055274,-1.348,-0.30344871,1.4302689,1.6623573,1.1751868,1.1024626,0.017755007,0.26801202,-0.71136373,-0.79352891,0.071674339,-0.21670951,-1.3114549,-1.4919002,-0.33042678,0.19985147,0.70568466,-0.1689859,-0.86988974,-1.3133749,-0.74636739,0.20242646,1.1283001,1.0545141,0.72626728,0.89485806,-0.32749653,0.4838672,-0.35907003,0.20887908,0.49875617,-0.39160717,-0.91872567,-0.94741029,-0.78617191,-0.34584299,0.079354785,-0.54736048,-1.3634775,-1.4111577,-0.27115715,0.91661793,1.0712248,0.91123962,0.61288577,0.65749669,0.056077398,0.23735908,0.029982265,0.16134103,-0.17886284,-0.95461732,-0.9048261,-0.085322224,-0.71210718,-0.20285726,0.57289648,0.11596923,-0.83837348,-0.91406757,0.12329289,0.90711033,0.94593149,0.18182902,0.27666166,0.4042508,0.33581775,0.1191307,0.66270763,0.002766387,-0.61301738,-0.38437605,-0.54255575,0.29809254,0.15258785,-0.064843245,0.043141246,0.240511,0.45319101,0.24088304,0.95424181,1.1572022,0.08348345,-0.53271919,-0.14759952,-0.16996849,0.1289935,-0.46768022,-0.75171936,-0.22241046,-0.061182544,-0.10212085,-0.43525928,-0.026536988,0.013856867,-0.16348653,-0.27665776,-0.35873857,-0.17112008,0.8976652,0.76266825,0.14828494,-0.58561218,-0.76937115,-0.31764874,-0.50785071,0.13980758,-0.043744255,-0.5231452,-0.59254766,0.18922314,-0.13801095,-0.32942519,-0.014314789,0.040645156,0.21572255,0.28538978,0.47502884,0.4763037,0.62174118,0.10574331,-0.066461682,-0.67629838,-0.4621563,-0.54220045,-0.51849592,-0.037464272,-0.1877777,-0.21041174,-0.38963503,0.29439273,-0.072507307,-0.222519,-0.09940955,0.000865805,0.28097165,0.3072229,0.49639204,0.26823461,0.052412495,0.048615742,-0.52754277,-0.67603785,-0.68600565,-0.64331746,-0.47497135,0.007467091,-0.035217263,-0.26883048,-0.2910659,-0.06785322,0.11012646,-0.10537538,0.19079021,0.27531874,0.14413401,0.5953424,0.92353994,0.46194622,0.35111448,-0.14012821,-0.63218713,-0.75324768,-0.85583049,-0.55664366,-0.38375691,0.053652935,0.029544059,-0.10549263,-0.16353349,-0.29222345,0.01612507,-0.21550643,-0.008922683,0.20483728,0.62896055,0.77161914,0.86500049,0.62042385,0.19802289,-0.41366351,-0.60627562,-0.78633726,-0.57960701,-0.34618598,-0.17529213                                                                                                                                                                       },
{-0.01025388,-0.34798273,-0.47333938,-0.35728386,-0.28082785,-0.37887079,-0.38310662,-0.39797091,-0.44342715,-0.33544806,-0.072432615,0.028877085,-0.12365853,-0.20750211,-0.42170292,-0.43002334,-0.2619122,-0.15240264,-0.080624752,-0.052364565,-0.1331825,-0.6352644,-0.66137058,-0.42112979,-0.34624949,-0.65624851,-0.62533599,-0.54580289,-0.56713486,-0.092111364,0.30619752,0.13760036,-0.20096354,-0.21779858,-0.18016475,-0.18848333,-0.19421412,0.090682782,0.014460182,-0.16435435,-0.3167966,-0.79957515,-1.122308,-0.93744755,-0.73022658,-1.1285318,-1.432453,-1.1313602,-0.43983442,0.031950954,0.28864998,0.14700605,-0.17595819,-0.42624238,-0.12793438,0.1047557,-0.087664135,0.11395196,0.11604945,-0.23348998,-0.20813653,-0.75642085,-0.80661017,-0.65588456,-0.67735106,-1.1790569,-1.3505569,-1.930632,-1.1049935,-0.60032421,-0.17297091,0.27283153,-0.16797163,-0.4156625,-0.35357204,-0.24159372,-0.13625778,-0.2914606,0.00140127,-0.29160619,-0.000461827,0.055038504,0.38751513,0.93616533,0.31513435,0.28290331,0.1744764,-0.16181673,-0.074214153,0.40592748,0.53759307,0.61239731,-0.13033441,-0.45023251,-0.025091957,0.10317095,-0.33660856,-0.56640279,-0.46143371,-0.23506139,0.67159975,1.2300339,1.0699828,1.3438251,2.6549892,2.7388451,2.3344464,1.846746,1.2269794,0.61565477,0.71229744,0.3691287,-0.062369999,-0.57076603,-0.38607416,-0.03717947,0.021756517,-0.32391065,-1.0434412,-0.68565333,1.0045315,1.3829854,0.61827153,1.5780234,1.9052843,2.3322878,2.9750576,1.7460531,1.930246,0.84367067,0.70861751,0.048981968,-0.18308815,-0.83712274,-0.77094996,-0.23490569,-0.099108577,-0.34976441,-0.878178,-0.90436506,1.3654522,1.5680692,0.34288153,-0.60010457,-0.37487599,1.2291566,1.7628138,0.68638861,1.3444532,0.97295594,0.84744185,0.50947332,-0.093018077,-0.34870371,-0.6075899,-0.065761358,0.16407377,-0.061318628,-0.85994118,-1.1690567,1.6544536,0.8693195,-1.4021418,-3.2101307,-2.9736233,-0.78315318,-0.47909403,-1.530244,-0.47405526,0.16816378,-0.086953044,0.43344352,0.73132789,0.028096117,0.083744496,-0.14233859,0.14225543,-0.25138015,-0.86571485,-0.55360633,1.2383322,-1.0868869,-4.0520172,-4.265996,-3.0108809,-2.1263745,-2.6569431,-2.758167,-0.97098589,-0.11307179,-0.53112847,0.3122223,0.30436823,-0.52738041,0.007496046,-0.16022781,-0.026796844,0.2279789,-0.43715659,-0.44197425,0.55379301,-1.7712179,-4.1495333,-2.1604762,-0.53495157,-0.97161812,-1.5100659,-1.3298254,-1.2556077,-0.37198004,0.04607258,0.31639522,-0.40052804,-0.94506854,-0.023107016,0.47123137,0.83785832,1.5859219,0.59709638,1.4650167,0.012219121,-2.1220505,-2.3364182,0.018973151,0.37336445,-0.38488862,0.25118059,-0.093890175,-0.10313338,0.2281948,0.46703953,-0.094633646,-0.75722724,-1.3233709,-0.62976146,-0.17023893,-0.14713268,0.31118125,0.63934278,0.76796842,-0.17057946,-0.93506426,-0.45492756,0.19417781,0.74355185,0.89603937,0.32991996,0.45621464,0.18559697,0.05314998,0.75109249,0.26494542,-0.32465202,-0.22513966,-0.74661016,-1.5634896,-0.96831727,-0.38751176,0.8448506,0.27836546,-0.34385532,-0.083881311,0.03129242,0.06577538,-0.16800784,-0.40672329,-0.51624793,-0.68509036,0.17157152,0.83761305,1.1479179,0.074850045,-0.70716804,-0.92162681,-1.3539815,-1.1741037,-0.64301509,0.72393173,0.87346011,0.04861816,-0.56263691,-0.29834446,-0.090807244,-0.21812679,-0.96003503,-1.054139,-1.0328562,-0.79946971,0.24149598,1.3903142,0.45570907,-0.66443431,-0.84073907,-0.41386905,-0.19981602,-0.004726919,0.40605018,0.78358698,0.21473546,-0.75133848,-0.50141042,-0.43203965,-0.26582104,-0.64570373,-1.1343211,-0.71436584,-0.46389389,-0.21230659,0.42322993,1.0242888,0.33853146,-0.81283677,-1.2369804,-0.82901233,-0.89859134,-0.17253883,0.12600031,0.20892401,-0.19234359,-1.2454906,-0.24623901,-0.32674453,-0.67963147,-0.90111721,-0.6058082,-0.44811592,-0.28286886,-0.40029892,0.38649416,1.0603098,0.53111625,-0.48966408,-0.57213718,-0.39944172,-0.47657004,0.013516064,0.53281528,0.53291589,-0.27708653,-0.75614911,-0.077385344,-0.060543455,-0.58360416,-0.32054305,-0.13164614,-0.22308438,-0.34702086,0.27129358,0.49557057,0.66518408,0.58457279,-0.072179288,-0.31719825,-0.32399285,-0.11242327,0.27481303,0.41220465,0.32290709,-0.020728813,-0.31710029,-0.005853084,0.03617445,0.046546135,0.11084012,-0.087233357,-0.056706734,-0.16187061,0.049347792,0.28408828,0.31551141,0.32979366,-0.068760134,-0.18546622,0.27414709,-0.025418768,0.14798905,0.262981,0.18685263,-0.01383247,0.044820435,0.033181641,0.17589745,0.44818008,0.19875465,-0.18073553,-0.26360613,-0.26600197,0.12211875,0.3527002,0.18302909,-0.15793647,-0.35829243,-0.18077615,0.39159724,0.13731308,0.052356616,-0.13160475,-0.11416503,-0.10800578,-0.035317507                                                                                                                                                                                                },
{0.032592338,0.18813477,0.42125452,0.67319041,0.75175071,0.37330654,-0.020406626,-0.29475179,-0.44173214,-0.40185827,-0.27695784,-0.11934324,0.1127155,0.37006626,0.49509904,0.50321597,0.5717274,0.53700745,0.46346146,0.24715599,0.18600579,0.3893275,0.62071371,0.9211114,0.60066563,0.1007194,-0.54701865,-1.0896313,-1.2111903,-1.1029557,-0.8631435,-0.41240436,-0.074777767,0.14091887,0.2805104,0.20300588,0.17228809,0.13803218,0.38852766,0.41036204,0.56492585,1.0060071,1.3136096,1.3841203,0.39997807,-0.73235041,-1.4240704,-1.8718987,-1.9346092,-1.5871212,-1.0458561,-0.44605863,-0.26945388,-0.38441569,-0.13576275,-0.1781698,-0.17092089,-0.28405601,0.003541434,0.34585169,0.76395929,1.3020983,1.6911891,1.273874,-0.096283056,-1.3259592,-2.3064322,-2.4785724,-1.978741,-1.4641485,-0.79544747,-0.40165767,-0.37481138,-0.48386604,-0.38080269,-0.3204962,-0.158935,-0.63697171,-0.41588536,0.21501796,1.1250501,1.1756303,1.3846819,0.69010001,-1.2210768,-2.3023617,-3.0254023,-2.5221133,-1.1490276,-0.30059519,0.084072337,-0.13602616,-0.24440116,-0.38541436,-0.36933899,-0.56770366,-0.37862659,-0.70915186,-0.44932318,0.096520275,1.3693147,1.1335361,1.1227593,-0.1927714,-1.8270597,-2.6828763,-2.8881211,-1.9912462,-0.18670355,0.49943185,0.60940295,0.44713706,-0.052419666,-0.60515773,-0.6397953,-0.33148733,-0.001977794,-0.69770473,-0.52266318,0.25511959,1.6648722,1.4334711,0.67942935,-0.74687076,-1.7772346,-2.5698004,-2.4114695,-0.86638069,0.88131666,1.0879387,0.63062841,-0.15087591,-0.64981204,-1.3171523,-1.1264571,-0.53527808,-0.37665883,-0.61726105,-0.12482037,0.2836886,1.5130762,1.1159909,0.50656229,-0.71166444,-2.0413718,-2.8069139,-2.1073987,-0.30700129,1.1280791,0.94502175,0.31916824,-0.64539707,-1.2415828,-1.7174742,-1.4456186,-0.78201222,-0.58691424,-0.48847049,0.1241362,1.0553851,1.2443185,1.1497806,0.67848527,-0.27410403,-0.82336849,-1.941293,-1.9922452,-0.76309663,0.47306615,0.67592835,-0.37115803,-0.96792114,-0.90071994,-1.003598,-0.9992494,-0.70154607,-0.81086057,-0.76001787,-0.15767112,0.93756455,0.72636819,0.80517071,0.62415928,0.43647733,0.040349349,-1.2362422,-1.1862377,-0.83151454,-0.15087822,0.80684024,-0.37650955,-0.48531112,-0.46852013,-0.61706215,-1.105078,-0.94536388,-0.80671668,-0.82221138,0.17534484,1.3515918,0.009155218,0.35708338,0.59945607,0.81281352,0.65205473,-0.24974215,-0.89220792,-0.41161463,0.428096,0.58403009,0.17700811,-0.39447141,-0.88490343,-1.4573087,-1.4939882,-0.96748602,-0.40972966,-0.1754009,0.73996902,1.385425,-0.20630829,0.59743923,0.51835442,0.36504844,0.71079987,0.34202451,-0.36838725,-0.33233219,0.13942586,-0.14602686,-0.026560729,-0.83820796,-1.544086,-1.5470126,-0.89621055,-0.18414629,0.3982341,0.33299285,0.75998825,1.2755089,-0.46737018,0.072709866,0.066417202,0.22498913,0.42898467,0.72622794,0.41859412,-0.29431352,-0.15636678,0.063343413,-0.36019391,-0.68188286,-1.0582025,-0.38588035,0.96344721,0.96810377,0.96501803,0.71343642,0.020887597,0.49916175,-0.553572,-0.56708938,-0.52386498,-0.12926719,0.061493292,0.009837112,-0.10679825,-0.70157778,-0.597049,-0.38786653,-0.90748835,-1.1330489,-1.129927,-0.15440357,1.4160705,1.5591393,0.7193346,0.34887826,-0.31425279,0.20326342,-0.39335674,-0.80272156,-0.58414721,-0.85305548,-0.55684143,-0.33760068,-0.36206955,-0.43795028,-0.62277043,-0.58628732,-0.96377033,-1.1739789,-0.68826342,-0.39802837,0.55538183,0.88910741,0.62774342,0.043167502,0.021029051,0.42026949,-0.3865777,-0.76303583,-0.89743125,-1.0824782,-0.63737172,-0.49248993,-0.097320169,0.19809365,-0.46252978,-0.72304553,-0.58675885,-0.15127206,-0.20472461,-0.35207897,-0.13745926,-0.12946872,-0.44523126,-0.036614828,0.21406907,0.3251909,-0.47677761,-0.6618408,-0.56880903,-0.80104709,-0.56749606,-0.37780154,-0.025895145,0.1867651,-0.42561466,-0.69668794,-0.49830624,0.12792082,0.45696819,-0.11209849,-0.13801457,-0.25407189,-0.17688052,-0.44750309,0.04180311,0.12009289,-0.60324979,-0.65892661,-0.5069446,-0.57253528,-0.485605,-0.53276157,-0.5202781,-0.48232985,-0.40291741,-0.55571246,-0.29855701,-0.056337737,0.29579359,0.36825711,0.54879206,0.14203884,0.050597925,-0.52071512,-0.15533572,0.07258743,-0.46916628,-0.69921362,-0.65126199,-0.6037724,-0.38908201,-0.30654967,-0.50763965,-0.597399,-0.65050137,-0.60403383,-0.68425226,-0.49931946,-0.16977786,-0.118919,0.16427645,0.28305155,0.040386915,-0.030283459,0.047867473,0.065996408,-0.29084072,-0.45255458,-0.57112283,-0.69745374,-0.70842236,-0.56807083,-0.37798211,-0.33057544,-0.38282809,-0.30990112,-0.34720978,-0.26025781,-0.15103854,-0.22070104,0.16772154,0.35458636,0.30559811,0.30439189,0.18491012,0.096125714                                                                                                                                                                                                                                        },
{-0.014577768,-0.071177945,-0.11539206,-0.26643264,-0.56567788,-0.54204911,-0.35615814,-0.42296171,-0.7420544,-0.851053,-0.61668116,-0.084550627,-0.15668528,0.20533337,0.92011201,1.0987701,1.2105894,1.3933195,0.6537627,0.075299278,-0.04414963,-0.1357629,-0.31350407,-0.57647383,-0.79375947,-0.88659537,-0.67860931,-0.9457978,-1.2644076,-0.76102227,0.4525699,0.55352199,0.25012806,0.64055842,1.0912399,1.0693384,1.0429488,0.90769708,0.46185863,-0.2638548,-0.037844963,-0.20876667,-0.41977137,-0.27129254,-0.6248517,-0.57737982,-0.75656426,-1.3315495,-1.1358064,0.18593906,0.89848512,0.71275491,1.0253243,1.7989954,1.7738986,1.5633585,0.2984741,0.34560055,0.26939222,-0.59895331,-0.017947458,-0.32240486,-0.68692279,-0.37152421,-0.43366787,-0.81757081,-0.1256512,-0.8535006,-0.79971474,0.15767337,1.4347221,1.2543287,1.5203429,1.9087898,2.9543583,1.9185823,1.5362418,0.81885248,0.62483174,-0.39319873,-0.009650193,-0.57501906,-0.68813473,-0.60046166,-1.0719293,-0.97076368,-0.010323426,-0.50577188,-0.47722986,0.78006893,1.5875897,0.89037281,2.0952439,3.5873702,3.734226,2.3776257,0.92906523,0.2909925,0.16338792,0.25929591,0.000411417,-0.65019673,-0.76607454,-0.49213889,-0.39111701,-0.29705808,-0.41971722,-0.51583982,0.27988261,1.1174806,1.8121254,1.7245768,2.9151919,2.2609248,0.035927631,-0.63709724,-0.17275743,0.69125569,-0.15552896,-0.36202052,-0.090515845,-0.41879272,-0.21986894,-0.31202054,0.43682453,-0.60686529,-1.4034046,-0.95793694,0.17824687,1.213114,1.5551293,1.8223144,1.260113,-1.2084692,-4.0499864,-4.6672988,-1.8383068,-0.29118603,0.51521468,-0.52592009,0.52290148,-0.21215971,-0.43250304,0.012716954,0.16889015,-1.0766398,-0.86364806,-0.29926303,1.1121353,2.1228166,2.2887864,1.3589302,-0.7195577,-2.674783,-4.8107324,-4.3763876,-2.266048,-0.97903109,-0.19815706,-0.3313874,0.24177767,-0.57192099,-0.46244594,-0.26977322,-0.47610974,-1.0226804,-0.14262174,-0.24435762,0.601062,1.4758257,1.4625762,0.63832605,-1.402371,-2.0894885,-2.8626173,-2.3237724,-1.4093028,-1.9158736,-0.93773806,-0.60203886,0.40833521,0.083783992,0.048928503,-0.28581268,-0.001783625,0.005872431,-0.10400826,-0.009791226,-0.16330375,-0.24045861,0.38168582,0.1230551,-1.4875522,-0.71062762,-1.0275866,-0.88255912,-1.93854,-2.2565784,-1.2667921,-0.7804141,0.18652605,0.63110352,-0.23101242,-0.31744957,0.059716567,0.1338627,0.38794506,0.23668502,-0.80202132,-0.73322171,0.28124049,-0.2005851,-0.24801168,0.90502453,0.95309442,-0.5996508,-2.6710236,-2.1146884,-1.3933839,-0.93491745,-0.37155324,0.38591361,0.18976615,-0.17912112,0.58588803,0.037416186,0.060900409,-0.73990732,-0.80443764,0.12393461,0.15649471,0.31346074,1.0365748,1.4850549,0.5738185,-0.1355511,-0.96775532,-0.98263109,-0.98884791,-1.0435911,0.18615314,0.3922843,-0.18999276,-0.7913062,0.13103783,-0.080702752,-0.30446827,-0.56923091,0.159089,0.19373046,0.4692547,0.72187507,0.53378624,0.20413098,0.23240539,0.057193212,-0.37329644,-0.22965305,-0.79511923,-0.96130848,0.45273674,0.6122753,0.19037549,0.26785529,0.81788337,-0.03657832,0.016861243,-0.80742592,0.46708211,-0.21908429,0.19070207,0.027724858,0.91884279,-0.71830899,-0.84002823,-0.13425829,-0.4595162,-0.007113814,-0.30304986,-0.58435756,0.10016185,0.63586223,0.41766489,0.083236411,-0.45145729,-0.65144634,-0.74031967,-0.81624097,-0.3260856,-0.38051686,-0.61663276,-0.27799234,0.5522542,0.031438712,0.22651549,0.25660589,-0.60805088,-1.1456207,-0.62816262,-1.022645,0.064196557,0.25362322,-0.21182267,0.016754625,-0.026421059,-0.24233381,-0.39763385,-0.17479758,0.2143148,-0.25466266,-0.024398152,0.50930339,0.40751842,-0.033261996,-0.1465504,-0.015515712,-0.49620155,-0.43725058,-0.12095616,-1.1967543,-0.25503555,0.62918079,-0.7306236,-0.24721676,-0.26000693,0.15210576,-0.28581238,-0.67732465,-0.26614851,-0.55802453,-0.66828859,-0.68387091,-0.30955935,-0.18026437,-1.1342791,-0.63087797,-0.44167593,0.21903898,-0.35357726,-1.1040919,-0.80302763,0.20931119,-0.03983403,0.31663442,-0.77924526,-0.64602154,-0.34683412,-0.5956322,-0.61849523,-0.75745207,-0.11185382,-0.015356584,1.0433002,0.58538252,-0.41900149,0.12532143,0.70664698,0.41633162,-0.48346329,-1.0507718,-0.81419611,-0.67477274,-0.25642172,-0.056937091,-0.55306876,-0.16281055,0.26771891,0.2276461,0.34941217,0.15548675,0.19338647,-0.26988024,-0.14272825,-0.075331159,0.057927497,0.91501963,0.83617121,0.28820029,-0.6149314,-0.78674734,-0.74388582,-1.1764998,-1.1307222,-1.1421487,-0.33282661,0.20130567,0.69090134,1.2232755,0.81773967,0.89514035,0.42515007,-0.17878756,-0.2316405,-0.38871795,0.23255314,0.51050591,0.37504724,-0.1271604,-0.5470984,-0.45499873                                                                                                                                                                                                                                                        },
